{"learner":{"attributes":{"scikit_learn":"{\"_estimator_type\": \"regressor\"}"},"feature_names":["Income","Tax_Rate","Cost_of_Living","Debt"],"feature_types":["float","float","float","float"],"gradient_booster":{"model":{"gbtree_model_param":{"num_parallel_tree":"1","num_trees":"100"},"iteration_indptr":[0,1,2,3,4,5,6,7,8,9,10,11,12,13,14,15,16,17,18,19,20,21,22,23,24,25,26,27,28,29,30,31,32,33,34,35,36,37,38,39,40,41,42,43,44,45,46,47,48,49,50,51,52,53,54,55,56,57,58,59,60,61,62,63,64,65,66,67,68,69,70,71,72,73,74,75,76,77,78,79,80,81,82,83,84,85,86,87,88,89,90,91,92,93,94,95,96,97,98,99,100],"tree_info":[0,0,0,0,0,0,0,0,0,0,0,0,0,0,0,0,0,0,0,0,0,0,0,0,0,0,0,0,0,0,0,0,0,0,0,0,0,0,0,0,0,0,0,0,0,0,0,0,0,0,0,0,0,0,0,0,0,0,0,0,0,0,0,0,0,0,0,0,0,0,0,0,0,0,0,0,0,0,0,0,0,0,0,0,0,0,0,0,0,0,0,0,0,0,0,0,0,0,0,0],"trees":[{"base_weights":[-2.141548E-3,-1.305277E5,1.3210622E6,-1.7385811E5,3.063907E5,9.742583E5,1.8595421E6,-1.8659908E5,-4.4594277E4,1.7236705E5,4.541182E5,1.2034469E6,7.435507E5,2.2638978E6,1.4449914E6,-1.8980667E5,-1.4214534E5,-7.890043E4,1.4145226E4,1.2463092E5,2.5547878E5,6.325114E5,3.7076572E5,8.616226E5,1.5769565E6,5.0818275E5,8.254474E5,1.9367629E6,2.690541E6,1.02163994E6,1.6351351E6,-1.9064889E5,-1.7546362E5,-1.548537E5,-1.3116094E5,-5.8709938E4,-9.792117E4,6.786303E4,-2.3462502E4,2.0349397E5,7.634404E4,3.6257394E5,1.6132889E5,5.336727E5,7.374135E5,2.872437E5,4.692739E5,1.0245476E6,6.814085E5,1.4335901E6,5.5265544E5,4.813689E5,1.1323302E6,1.02418E6,7.2306925E5,2.193822E6,1.4380786E6,7.325604E5,2.8993342E6,8.643214E5,1.1396365E6,2.0486785E6,1.4038248E6,-5.638972E4,-5.816837E4,-5.0489598E4,-5.4311082E4,-4.38629E4,-4.8762242E4,-3.39915E4,-4.2857055E4,-2.2409928E4,-2.0301982E3,-3.2980023E4,-1.7913408E4,1.1880319E4,3.5609773E4,-1.583735E4,2.3726577E3,5.3267258E4,7.738545E4,1.554574E4,3.6741715E4,9.397493E4,1.22442195E5,6.3423977E4,2.9344459E4,1.3284164E5,1.6818623E5,2.0382386E5,2.4709225E5,9.812703E4,5.418078E4,1.683286E5,8.2183125E4,2.7217072E5,3.299567E5,1.717995E5,2.5136853E5,3.9549084E5,4.5300166E5,1.08355086E5,1.571458E5,6.1852035E4,3.612986E5,2.8096553E5,3.7674038E5,1.6521569E5,2.324958E5,6.166444E5,6.993662E5,3.270358E5,4.7694872E5,8.7218706E5,2.4396523E5,2.8276597E5,2.1296106E5,3.2417753E5,4.6547453E5,5.744389E5,7.307779E5,3.470202E5,4.497648E5],"categories":[],"categories_nodes":[],"categories_segments":[],"categories_sizes":[],"default_left":[0,0,0,0,0,0,0,0,0,0,0,0,0,0,0,0,0,0,0,0,0,0,0,0,0,0,0,0,0,0,0,0,0,0,0,0,0,0,0,0,0,0,0,0,0,0,0,0,0,0,0,0,0,0,0,0,0,0,0,0,0,0,0,0,0,0,0,0,0,0,0,0,0,0,0,0,0,0,0,0,0,0,0,0,0,0,0,0,0,0,0,0,0,0,0,0,0,0,0,0,0,0,0,0,0,0,0,0,0,0,0,0,0,0,0,0,0,0,0,0,0,0,0],"id":0,"left_children":[1,3,5,7,9,11,13,15,17,19,21,23,25,27,29,31,33,35,37,39,41,43,45,47,49,51,53,55,57,59,61,63,65,67,69,71,73,75,77,79,81,83,85,87,89,91,93,95,97,99,-1,101,103,105,107,109,111,-1,113,115,117,119,121,-1,-1,-1,-1,-1,-1,-1,-1,-1,-1,-1,-1,-1,-1,-1,-1,-1,-1,-1,-1,-1,-1,-1,-1,-1,-1,-1,-1,-1,-1,-1,-1,-1,-1,-1,-1,-1,-1,-1,-1,-1,-1,-1,-1,-1,-1,-1,-1,-1,-1,-1,-1,-1,-1,-1,-1,-1,-1,-1,-1],"loss_changes":[6.8977534E15,6.8926736E14,6.699172E14,5.454011E13,6.4961414E13,1.1490272E14,2.3274589E14,4.272016E12,5.9920876E12,6.808014E12,2.2991665E13,1.387002E14,2.0668322E13,9.402328E13,5.4516825E13,3.0621775E11,2.6348198E11,7.1509003E11,2.2177566E12,4.1618967E12,6.273626E12,4.749177E12,8.644058E12,1.6184645E13,1.7246173E13,4.2246372E12,1.5739579E13,4.889082E13,8.808038E12,3.08028E12,4.3039196E13,1.9474992E11,3.2308724E10,3.849742E10,2.1291336E11,7.577891E11,4.363565E11,6.44702E11,5.9478914E11,5.417709E11,7.65196E11,5.3068012E11,1.0481571E12,3.8595985E11,6.306975E11,2.4054963E12,8.59881E12,1.6525558E12,4.2168274E12,1.03985185E12,0E0,1.2138274E12,4.851992E11,4.3648612E12,4.3871413E12,2.6440892E11,5.712105E12,0E0,3.0762703E11,5.1504375E11,1.2908222E12,4.1494753E12,5.596208E12,0E0,0E0,0E0,0E0,0E0,0E0,0E0,0E0,0E0,0E0,0E0,0E0,0E0,0E0,0E0,0E0,0E0,0E0,0E0,0E0,0E0,0E0,0E0,0E0,0E0,0E0,0E0,0E0,0E0,0E0,0E0,0E0,0E0,0E0,0E0,0E0,0E0,0E0,0E0,0E0,0E0,0E0,0E0,0E0,0E0,0E0,0E0,0E0,0E0,0E0,0E0,0E0,0E0,0E0,0E0,0E0,0E0,0E0,0E0,0E0],"parents":[2147483647,0,0,1,1,2,2,3,3,4,4,5,5,6,6,7,7,8,8,9,9,10,10,11,11,12,12,13,13,14,14,15,15,16,16,17,17,18,18,19,19,20,20,21,21,22,22,23,23,24,24,25,25,26,26,27,27,28,28,29,29,30,30,31,31,32,32,33,33,34,34,35,35,36,36,37,37,38,38,39,39,40,40,41,41,42,42,43,43,44,44,45,45,46,46,47,47,48,48,49,49,51,51,52,52,53,53,54,54,55,55,56,56,58,58,59,59,60,60,61,61,62,62],"right_children":[2,4,6,8,10,12,14,16,18,20,22,24,26,28,30,32,34,36,38,40,42,44,46,48,50,52,54,56,58,60,62,64,66,68,70,72,74,76,78,80,82,84,86,88,90,92,94,96,98,100,-1,102,104,106,108,110,112,-1,114,116,118,120,122,-1,-1,-1,-1,-1,-1,-1,-1,-1,-1,-1,-1,-1,-1,-1,-1,-1,-1,-1,-1,-1,-1,-1,-1,-1,-1,-1,-1,-1,-1,-1,-1,-1,-1,-1,-1,-1,-1,-1,-1,-1,-1,-1,-1,-1,-1,-1,-1,-1,-1,-1,-1,-1,-1,-1,-1,-1,-1,-1,-1],"split_conditions":[3.2210035E6,1.0676889E6,6.3656185E6,3.71235E5,1.9464819E6,1.0656891E6,1.855249E6,1.7614422E5,7.0918375E5,1.584775E6,4.586165E5,4.319486E6,4.1374498E6,7.8111005E6,7.8111005E6,3.0923823E-1,2.43632E5,1.148601E5,1.902317E5,2.618729E5,3.5687916E5,2.451673E6,2.6995668E6,7.438076E5,5.475194E6,3.9139E-1,1.4259822E6,1.3374551E6,8.672401E6,7.0830795E6,2.3699852E6,1.7584414E4,3.098495E4,4.6668867E4,6.12159E4,5.318054E5,6.2804994E5,8.97952E5,8.97952E5,1.3259879E6,1.4084406E6,1.7462535E6,5.3810594E5,2.0734781E6,2.8194788E6,7.438076E5,8.279753E5,3.5654412E6,3.746147E6,4.8111995E6,5.5265544E5,3.5654412E6,3.5654412E6,5.475194E6,4.8111995E6,7.0830795E6,6.671301E6,7.325604E5,4.004082E-1,2.8815802E6,3.429434E6,9.494634E6,8.672401E6,-5.638972E4,-5.816837E4,-5.0489598E4,-5.4311082E4,-4.38629E4,-4.8762242E4,-3.39915E4,-4.2857055E4,-2.2409928E4,-2.0301982E3,-3.2980023E4,-1.7913408E4,1.1880319E4,3.5609773E4,-1.583735E4,2.3726577E3,5.3267258E4,7.738545E4,1.554574E4,3.6741715E4,9.397493E4,1.22442195E5,6.3423977E4,2.9344459E4,1.3284164E5,1.6818623E5,2.0382386E5,2.4709225E5,9.812703E4,5.418078E4,1.683286E5,8.2183125E4,2.7217072E5,3.299567E5,1.717995E5,2.5136853E5,3.9549084E5,4.5300166E5,1.08355086E5,1.571458E5,6.1852035E4,3.612986E5,2.8096553E5,3.7674038E5,1.6521569E5,2.324958E5,6.166444E5,6.993662E5,3.270358E5,4.7694872E5,8.7218706E5,2.4396523E5,2.8276597E5,2.1296106E5,3.2417753E5,4.6547453E5,5.744389E5,7.307779E5,3.470202E5,4.497648E5],"split_indices":[0,0,0,0,0,3,3,0,0,0,3,0,0,0,0,1,0,3,3,3,3,0,0,3,0,1,3,3,0,0,3,3,3,3,3,0,0,0,0,0,0,0,3,0,0,3,3,0,0,0,0,0,0,0,0,0,0,0,1,2,2,0,0,0,0,0,0,0,0,0,0,0,0,0,0,0,0,0,0,0,0,0,0,0,0,0,0,0,0,0,0,0,0,0,0,0,0,0,0,0,0,0,0,0,0,0,0,0,0,0,0,0,0,0,0,0,0,0,0,0,0,0,0],"split_type":[0,0,0,0,0,0,0,0,0,0,0,0,0,0,0,0,0,0,0,0,0,0,0,0,0,0,0,0,0,0,0,0,0,0,0,0,0,0,0,0,0,0,0,0,0,0,0,0,0,0,0,0,0,0,0,0,0,0,0,0,0,0,0,0,0,0,0,0,0,0,0,0,0,0,0,0,0,0,0,0,0,0,0,0,0,0,0,0,0,0,0,0,0,0,0,0,0,0,0,0,0,0,0,0,0,0,0,0,0,0,0,0,0,0,0,0,0,0,0,0,0,0,0],"sum_hessian":[4E4,3.6404E4,3.596E3,3.312E4,3.284E3,2.189E3,1.407E3,3.0148E4,2.972E3,1.723E3,1.561E3,1.096E3,1.093E3,7.1E2,6.97E2,2.8116E4,2.032E3,1.876E3,1.096E3,1.096E3,6.27E2,4.95E2,1.066E3,5.74E2,5.22E2,2.84E2,8.09E2,4.05E2,3.05E2,2.18E2,4.79E2,2.6545E4,1.571E3,9.36E2,1.096E3,9.12E2,9.64E2,4.51E2,6.45E2,4.15E2,6.81E2,2.92E2,3.35E2,2.58E2,2.37E2,5.79E2,4.87E2,2.99E2,2.75E2,3.43E2,1.79E2,2.74E2,1E1,2.72E2,5.37E2,2.65E2,1.4E2,1.45E2,1.6E2,9.7E1,1.21E2,1.69E2,3.1E2,1.4564E4,1.1981E4,7.01E2,8.7E2,4.5E2,4.86E2,4.38E2,6.58E2,6.97E2,2.15E2,7.32E2,2.32E2,2.91E2,1.6E2,3.33E2,3.12E2,2.84E2,1.31E2,4.46E2,2.35E2,1.44E2,1.48E2,1.86E2,1.49E2,6.3E1,1.95E2,1.47E2,9E1,4.2E2,1.59E2,3.3E2,1.57E2,1.22E2,1.77E2,1.65E2,1.1E2,1.44E2,1.99E2,7.4E1,2E2,1E0,9E0,2.01E2,7.1E1,1.27E2,4.1E2,1.4E2,1.25E2,4.5E1,9.5E1,1.59E2,1E0,6.1E1,3.6E1,1.09E2,1.2E1,1.3E2,3.9E1,9E1,2.2E2],"tree_param":{"num_deleted":"0","num_feature":"4","num_nodes":"123","size_leaf_vector":"1"}},{"base_weights":[3.185746E2,-8.917871E4,9.506325E5,-1.21713664E5,2.2419125E5,7.037854E5,1.306904E6,-1.3039872E5,-2.8273781E4,1.380951E5,3.4873325E5,9.0809494E5,5.427291E5,1.5903102E6,1.01634694E6,-1.3308486E5,-1.0047131E5,-5.569507E4,6.316871E3,9.413949E4,2.0840484E5,4.6613547E5,2.5936516E5,6.604763E5,1.1109972E6,4.3598428E5,6.437923E5,1.3609558E6,1.8894202E6,7.210172E5,1.1489738E6,-1.3065687E5,-1.3467977E5,-1.0844468E5,-8.710085E4,-4.44397E4,-8.120846E4,3.8039273E4,-2.8396758E4,1.4616647E5,6.0803547E4,2.8904425E5,1.2619322E5,3.9713388E5,6.04223E5,1.6073589E5,2.7950312E5,7.55029E5,5.542935E5,1.0150602E6,3.8987003E5,5.4298056E5,3.576055E5,7.917333E5,4.627172E5,1.5258884E6,9.598674E5,5.1429756E5,2.0364666E6,1.10114266E5,7.508899E5,1.4417528E6,9.852393E5,-4.232537E4,-3.9014785E4,-4.058523E4,-3.7356316E4,-3.0269201E4,-3.376513E4,-2.1433832E4,-2.957578E4,-1.7435574E4,-6.66347E3,-2.0153318E4,-2.58521E4,4.6676377E3,2.099669E4,-1.488847E4,-3.4237894E2,3.588622E4,5.7321637E4,2.5615707E4,4.282654E3,7.460698E4,9.614493E4,4.9035336E4,1.646473E4,1.3054039E5,7.015519E4,1.6184764E5,2.0723798E5,8.348325E4,3.0260607E4,9.703642E4,6.5011023E4,2.0437548E5,2.4752806E5,1.427219E5,2.101867E5,3.095646E5,2.3641958E5,1.1461779E5,1.9623862E5,1.2119849E5,7.475677E4,3.4239822E5,2.2088056E5,1.7794592E5,1.180164E5,4.8782844E5,4.2052822E5,2.565378E5,3.747237E5,6.190863E5,3.4328034E5,2.1641905E5,3.365739E5,1.3260052E5,4.3895416E5,2.6243325E5,3.3169984E5],"categories":[],"categories_nodes":[],"categories_segments":[],"categories_sizes":[],"default_left":[0,0,0,0,0,0,0,0,0,0,0,0,0,0,0,0,0,0,0,0,0,0,0,0,0,0,0,0,0,0,0,0,0,0,0,0,0,0,0,0,0,0,0,0,0,0,0,0,0,0,0,0,0,0,0,0,0,0,0,0,0,0,0,0,0,0,0,0,0,0,0,0,0,0,0,0,0,0,0,0,0,0,0,0,0,0,0,0,0,0,0,0,0,0,0,0,0,0,0,0,0,0,0,0,0,0,0,0,0,0,0,0,0,0,0,0,0,0,0,0,0],"id":1,"left_children":[1,3,5,7,9,11,13,15,17,19,21,23,25,27,29,31,33,35,37,39,41,43,45,47,49,51,53,55,57,59,61,63,65,67,69,71,73,75,77,79,81,83,85,87,89,91,93,95,97,99,-1,101,103,105,107,109,111,-1,113,-1,115,117,119,-1,-1,-1,-1,-1,-1,-1,-1,-1,-1,-1,-1,-1,-1,-1,-1,-1,-1,-1,-1,-1,-1,-1,-1,-1,-1,-1,-1,-1,-1,-1,-1,-1,-1,-1,-1,-1,-1,-1,-1,-1,-1,-1,-1,-1,-1,-1,-1,-1,-1,-1,-1,-1,-1,-1,-1,-1,-1],"loss_changes":[3.4021907E15,3.7276367E14,3.018734E14,2.6875053E13,3.682683E13,6.6502334E13,1.1432639E14,2.4227307E12,2.6732816E12,6.2695617E12,1.4620387E13,4.428346E13,1.2028425E13,4.6204856E13,2.6511223E13,9.009365E10,2.5707099E11,4.4781063E11,1.3742762E12,2.1660099E12,5.147793E12,5.534166E12,1.5440282E12,3.6576847E12,7.5635045E12,4.485347E12,1.5278105E13,2.5393323E13,4.3875104E12,2.0400843E12,2.1589727E13,5.1724157E10,8.5966455E10,3.704619E10,1.6178532E11,3.3104226E11,2.7650425E10,4.6720628E11,3.4483316E11,5.600591E11,8.749001E11,4.201665E11,1.0245594E12,2.4236282E12,7.480709E11,9.4302083E11,1.759888E12,5.337755E11,1.9081525E12,4.4687793E11,0E0,3.9354316E12,1.533878E12,5.3645316E12,2.1630613E12,1.2779541E12,2.597264E12,0E0,1.5392089E12,0E0,1.3901182E12,2.9951022E12,3.1699207E12,0E0,0E0,0E0,0E0,0E0,0E0,0E0,0E0,0E0,0E0,0E0,0E0,0E0,0E0,0E0,0E0,0E0,0E0,0E0,0E0,0E0,0E0,0E0,0E0,0E0,0E0,0E0,0E0,0E0,0E0,0E0,0E0,0E0,0E0,0E0,0E0,0E0,0E0,0E0,0E0,0E0,0E0,0E0,0E0,0E0,0E0,0E0,0E0,0E0,0E0,0E0,0E0,0E0,0E0,0E0,0E0,0E0,0E0],"parents":[2147483647,0,0,1,1,2,2,3,3,4,4,5,5,6,6,7,7,8,8,9,9,10,10,11,11,12,12,13,13,14,14,15,15,16,16,17,17,18,18,19,19,20,20,21,21,22,22,23,23,24,24,25,25,26,26,27,27,28,28,29,29,30,30,31,31,32,32,33,33,34,34,35,35,36,36,37,37,38,38,39,39,40,40,41,41,42,42,43,43,44,44,45,45,46,46,47,47,48,48,49,49,51,51,52,52,53,53,54,54,55,55,56,56,58,58,60,60,61,61,62,62],"right_children":[2,4,6,8,10,12,14,16,18,20,22,24,26,28,30,32,34,36,38,40,42,44,46,48,50,52,54,56,58,60,62,64,66,68,70,72,74,76,78,80,82,84,86,88,90,92,94,96,98,100,-1,102,104,106,108,110,112,-1,114,-1,116,118,120,-1,-1,-1,-1,-1,-1,-1,-1,-1,-1,-1,-1,-1,-1,-1,-1,-1,-1,-1,-1,-1,-1,-1,-1,-1,-1,-1,-1,-1,-1,-1,-1,-1,-1,-1,-1,-1,-1,-1,-1,-1,-1,-1,-1,-1,-1,-1,-1,-1,-1,-1,-1,-1,-1,-1,-1,-1,-1],"split_conditions":[3.374225E6,1.0676889E6,6.3656185E6,3.9184128E5,2.1860088E6,1.0235337E6,1.855249E6,1.5771702E5,6.675936E5,1.6726849E6,5.9271606E5,4.319486E6,4.8111995E6,7.8111005E6,7.8111005E6,1.4457044E4,2.760076E5,1.5102336E5,2.0965316E5,2.7627834E5,4.586165E5,2.8194788E6,2.451673E6,6.7873994E5,5.475194E6,1.2526769E6,1.7221376E6,1.4259822E6,8.672401E6,1.1603711E6,2.3699852E6,1.4921989E-1,1.1496488E5,3.9843746E4,6.934985E4,5.0426897E5,1.6755125E5,8.445765E5,8.97952E5,1.3259879E6,4.586165E5,1.8466218E6,6.7873994E5,5.0931047E5,3.0653452E6,6.7873994E5,8.726767E5,3.746147E6,3.966029E6,9.685715E5,3.8987003E5,3.966029E6,1.6013189E6,1.1147665E6,1.1603711E6,1.0656891E6,2.8815802E6,5.1429756E5,3.9992505E-1,1.10114266E5,3.429434E6,1.3174159E6,9.069028E6,-4.232537E4,-3.9014785E4,-4.058523E4,-3.7356316E4,-3.0269201E4,-3.376513E4,-2.1433832E4,-2.957578E4,-1.7435574E4,-6.66347E3,-2.0153318E4,-2.58521E4,4.6676377E3,2.099669E4,-1.488847E4,-3.4237894E2,3.588622E4,5.7321637E4,2.5615707E4,4.282654E3,7.460698E4,9.614493E4,4.9035336E4,1.646473E4,1.3054039E5,7.015519E4,1.6184764E5,2.0723798E5,8.348325E4,3.0260607E4,9.703642E4,6.5011023E4,2.0437548E5,2.4752806E5,1.427219E5,2.101867E5,3.095646E5,2.3641958E5,1.1461779E5,1.9623862E5,1.2119849E5,7.475677E4,3.4239822E5,2.2088056E5,1.7794592E5,1.180164E5,4.8782844E5,4.2052822E5,2.565378E5,3.747237E5,6.190863E5,3.4328034E5,2.1641905E5,3.365739E5,1.3260052E5,4.3895416E5,2.6243325E5,3.3169984E5],"split_indices":[0,0,0,0,0,3,3,0,0,0,3,0,0,0,0,3,0,3,3,3,3,0,0,3,0,3,3,3,0,2,3,1,0,3,3,0,3,0,0,0,3,0,3,3,0,3,3,0,0,3,0,0,3,3,2,3,2,0,1,0,2,2,0,0,0,0,0,0,0,0,0,0,0,0,0,0,0,0,0,0,0,0,0,0,0,0,0,0,0,0,0,0,0,0,0,0,0,0,0,0,0,0,0,0,0,0,0,0,0,0,0,0,0,0,0,0,0,0,0,0,0],"split_type":[0,0,0,0,0,0,0,0,0,0,0,0,0,0,0,0,0,0,0,0,0,0,0,0,0,0,0,0,0,0,0,0,0,0,0,0,0,0,0,0,0,0,0,0,0,0,0,0,0,0,0,0,0,0,0,0,0,0,0,0,0,0,0,0,0,0,0,0,0,0,0,0,0,0,0,0,0,0,0,0,0,0,0,0,0,0,0,0,0,0,0,0,0,0,0,0,0,0,0,0,0,0,0,0,0,0,0,0,0,0,0,0,0,0,0,0,0,0,0,0,0],"sum_hessian":[4E4,3.6558E4,3.442E3,3.312E4,3.438E3,2.035E3,1.407E3,3.0303E4,2.817E3,2.034E3,1.404E3,8.95E2,1.14E3,7.1E2,6.97E2,2.7804E4,2.499E3,1.571E3,1.246E3,1.253E3,7.81E2,6.05E2,7.99E2,4.05E2,4.9E2,5.57E2,5.83E2,4.05E2,3.05E2,2.18E2,4.79E2,1.1056E4,1.6748E4,1.561E3,9.38E2,1.092E3,4.79E2,6.51E2,5.95E2,4.88E2,7.65E2,3.93E2,3.88E2,4.06E2,1.99E2,1.37E2,6.62E2,2.11E2,1.94E2,3.29E2,1.61E2,2.33E2,3.24E2,3.19E2,2.64E2,2.85E2,1.2E2,1.45E2,1.6E2,1.8E1,2E2,1.69E2,3.1E2,5.96E2,1.046E4,1.5796E4,9.52E2,5.59E2,1.002E3,4E2,5.38E2,6.75E2,4.17E2,1.29E2,3.5E2,3.83E2,2.68E2,3.34E2,2.61E2,3.09E2,1.79E2,5E2,2.65E2,1.76E2,2.17E2,2.54E2,1.34E2,3.28E2,7.8E1,1.18E2,8.1E1,4.5E1,9.2E1,3.87E2,2.75E2,1.08E2,1.03E2,1.29E2,6.5E1,3.03E2,2.6E1,9.7E1,1.36E2,2.25E2,9.9E1,4.1E1,2.78E2,8.9E1,1.75E2,1.51E2,1.34E2,9.1E1,2.9E1,1.54E2,6E0,1.88E2,1.2E1,4E0,1.65E2,1.66E2,1.44E2],"tree_param":{"num_deleted":"0","num_feature":"4","num_nodes":"121","size_leaf_vector":"1"}},{"base_weights":[4.4356534E2,-6.4008285E4,6.527564E5,-8.4108516E4,1.6238289E5,4.9540788E5,9.4707494E5,-9.092425E4,-1.0077221E4,9.50377E4,2.2298445E5,5.871057E5,3.4608875E5,1.1858016E6,7.325212E5,-9.2922414E4,-6.4892832E4,-3.15261E4,1.6694908E4,1.2394309E5,3.441956E4,2.885651E5,1.5669664E5,4.4964753E5,8.253826E5,2.0523708E5,3.8816878E5,1.0912682E6,1.4315041E6,5.3392425E5,8.067102E5,-9.338366E4,-8.283419E4,-5.852267E4,-7.33851E4,-1.7649656E4,-5.1417715E4,3.6653418E4,-2.321432E4,8.46932E4,1.640984E5,1.1787172E4,8.489767E4,2.0374736E5,3.4390244E5,1.8545392E5,1.02105664E5,3.7098084E5,5.5157675E5,7.154772E5,9.131899E5,3.1779588E5,1.433104E5,4.665322E5,3.415194E5,1.1645135E6,8.8944456E5,1.1895095E6,1.5360381E6,5.097202E5,8.112293E5,9.655365E5,6.327685E5,-2.7692152E4,-2.8882064E4,-2.2963695E4,-2.6444365E4,-1.994766E4,-1.2046921E4,-2.4308348E4,-2.0424137E4,-8.20955E3,4.777705E3,-1.8124102E4,-1.3070949E4,4.487856E3,1.5898443E4,-1.3385237E4,-2.7405146E3,4.152939E4,1.9117104E4,6.1932145E4,3.95908E4,-2.4494175E3,8.372807E3,4.4863703E4,1.4320029E4,7.6089625E4,3.958733E4,9.5302984E4,1.3268592E5,3.9849227E4,6.9573055E4,1.094167E4,3.5941938E4,1.5278023E5,8.839368E4,1.8129994E5,1.3729952E5,2.3308052E5,1.6557266E5,2.6182852E5,3.1059794E5,1.3586998E5,7.002639E4,6.337538E4,2.8370904E4,1.4613767E5,3.178074E4,9.501922E4,1.6043388E5,3.242078E5,3.6966906E5,2.29712E5,3.5661297E5,4.1525538E5,2.4808458E5,4.7468056E5,2.7603928E5,1.7626075E5,1.2349869E5,2.8378366E5,1.4892086E5,2.3125775E5,3.4483825E5,2.1000573E5,1.4809881E5],"categories":[],"categories_nodes":[],"categories_segments":[],"categories_sizes":[],"default_left":[0,0,0,0,0,0,0,0,0,0,0,0,0,0,0,0,0,0,0,0,0,0,0,0,0,0,0,0,0,0,0,0,0,0,0,0,0,0,0,0,0,0,0,0,0,0,0,0,0,0,0,0,0,0,0,0,0,0,0,0,0,0,0,0,0,0,0,0,0,0,0,0,0,0,0,0,0,0,0,0,0,0,0,0,0,0,0,0,0,0,0,0,0,0,0,0,0,0,0,0,0,0,0,0,0,0,0,0,0,0,0,0,0,0,0,0,0,0,0,0,0,0,0,0,0,0,0],"id":2,"left_children":[1,3,5,7,9,11,13,15,17,19,21,23,25,27,29,31,33,35,37,39,41,43,45,47,49,51,53,55,57,59,61,63,65,67,69,71,73,75,77,79,81,83,85,87,89,91,93,95,97,99,101,103,105,107,109,111,113,115,117,119,121,123,125,-1,-1,-1,-1,-1,-1,-1,-1,-1,-1,-1,-1,-1,-1,-1,-1,-1,-1,-1,-1,-1,-1,-1,-1,-1,-1,-1,-1,-1,-1,-1,-1,-1,-1,-1,-1,-1,-1,-1,-1,-1,-1,-1,-1,-1,-1,-1,-1,-1,-1,-1,-1,-1,-1,-1,-1,-1,-1,-1,-1,-1,-1,-1,-1],"loss_changes":[1.6817944E15,1.6567516E14,1.6611E14,1.6870632E13,1.2095962E13,3.1918788E13,6.3258493E13,1.586571E12,1.6198609E12,2.4628188E12,6.7451035E12,4.718639E13,5.2250374E12,1.2165092E13,9.322965E12,1.2457083E11,1.1396134E11,4.3134747E11,1.00049433E12,1.4881181E12,5.1995204E11,3.609702E12,1.2040064E12,7.1963855E12,4.4613973E12,1.4042981E12,2.3557308E12,5.3355573E12,2.2456304E12,8.147813E11,1.2649786E13,7.5665244E10,3.50885E10,1.8087805E11,3.2309248E10,3.0184604E11,4.2763026E10,2.9593082E11,1.25854155E11,5.3657967E11,6.121503E11,1.0187501E11,3.316275E11,1.0838658E12,1.0799368E12,1.2135348E12,3.104684E11,5.381359E12,1.7052027E12,1.9838135E12,5.3329736E11,7.264356E11,4.303841E11,1.8345718E12,1.914553E12,4.4493177E11,3.4964138E12,2.596165E12,1.6477072E12,1.0629373E12,8.178893E10,8.0295756E12,1.8247739E12,0E0,0E0,0E0,0E0,0E0,0E0,0E0,0E0,0E0,0E0,0E0,0E0,0E0,0E0,0E0,0E0,0E0,0E0,0E0,0E0,0E0,0E0,0E0,0E0,0E0,0E0,0E0,0E0,0E0,0E0,0E0,0E0,0E0,0E0,0E0,0E0,0E0,0E0,0E0,0E0,0E0,0E0,0E0,0E0,0E0,0E0,0E0,0E0,0E0,0E0,0E0,0E0,0E0,0E0,0E0,0E0,0E0,0E0,0E0,0E0,0E0,0E0,0E0,0E0],"parents":[2147483647,0,0,1,1,2,2,3,3,4,4,5,5,6,6,7,7,8,8,9,9,10,10,11,11,12,12,13,13,14,14,15,15,16,16,17,17,18,18,19,19,20,20,21,21,22,22,23,23,24,24,25,25,26,26,27,27,28,28,29,29,30,30,31,31,32,32,33,33,34,34,35,35,36,36,37,37,38,38,39,39,40,40,41,41,42,42,43,43,44,44,45,45,46,46,47,47,48,48,49,49,50,50,51,51,52,52,53,53,54,54,55,55,56,56,57,57,58,58,59,59,60,60,61,61,62,62],"right_children":[2,4,6,8,10,12,14,16,18,20,22,24,26,28,30,32,34,36,38,40,42,44,46,48,50,52,54,56,58,60,62,64,66,68,70,72,74,76,78,80,82,84,86,88,90,92,94,96,98,100,102,104,106,108,110,112,114,116,118,120,122,124,126,-1,-1,-1,-1,-1,-1,-1,-1,-1,-1,-1,-1,-1,-1,-1,-1,-1,-1,-1,-1,-1,-1,-1,-1,-1,-1,-1,-1,-1,-1,-1,-1,-1,-1,-1,-1,-1,-1,-1,-1,-1,-1,-1,-1,-1,-1,-1,-1,-1,-1,-1,-1,-1,-1,-1,-1,-1,-1,-1,-1,-1,-1,-1,-1],"split_conditions":[3.2210035E6,1.1922735E6,6.671301E6,4.31193E5,1.9464819E6,1.2526769E6,1.855249E6,1.95669E5,7.50717E5,4.586165E5,5.9271606E5,4.8111995E6,4.319486E6,8.672401E6,7.8111005E6,1.2861037E5,7.336305E4,1.5102336E5,2.7627834E5,1.4854175E6,1.7462535E6,2.3174275E6,8.279753E5,3.966029E6,5.475194E6,3.286197E-1,1.6013189E6,1.520631E6,3.3017486E-1,3.429434E6,2.6871712E6,2.2617115E4,3.4508676E4,3.115041E5,3.115041E5,6.2804994E5,5.885583E5,8.97952E5,9.5113044E5,2.0965316E5,2.7627834E5,1.4854175E6,5.3810594E5,4.3320853E5,2.957043E6,2.5661295E6,2.451673E6,6.7873994E5,9.685715E5,9.685715E5,2.4736712E6,7.3918894E5,1.1007076E6,3.9139E-1,2.6483892E6,7.4471015E6,8.24682E6,1.3374551E6,3.9932248E-1,2.8815802E6,7.4471015E6,8.672401E6,9.494634E6,-2.7692152E4,-2.8882064E4,-2.2963695E4,-2.6444365E4,-1.994766E4,-1.2046921E4,-2.4308348E4,-2.0424137E4,-8.20955E3,4.777705E3,-1.8124102E4,-1.3070949E4,4.487856E3,1.5898443E4,-1.3385237E4,-2.7405146E3,4.152939E4,1.9117104E4,6.1932145E4,3.95908E4,-2.4494175E3,8.372807E3,4.4863703E4,1.4320029E4,7.6089625E4,3.958733E4,9.5302984E4,1.3268592E5,3.9849227E4,6.9573055E4,1.094167E4,3.5941938E4,1.5278023E5,8.839368E4,1.8129994E5,1.3729952E5,2.3308052E5,1.6557266E5,2.6182852E5,3.1059794E5,1.3586998E5,7.002639E4,6.337538E4,2.8370904E4,1.4613767E5,3.178074E4,9.501922E4,1.6043388E5,3.242078E5,3.6966906E5,2.29712E5,3.5661297E5,4.1525538E5,2.4808458E5,4.7468056E5,2.7603928E5,1.7626075E5,1.2349869E5,2.8378366E5,1.4892086E5,2.3125775E5,3.4483825E5,2.1000573E5,1.4809881E5],"split_indices":[0,0,0,0,0,3,3,0,0,3,3,0,0,0,0,0,3,3,3,0,0,0,3,0,0,1,3,3,1,2,3,3,3,0,0,0,0,0,0,3,3,0,3,3,0,0,0,3,3,3,2,2,2,1,2,0,0,3,1,2,0,0,0,0,0,0,0,0,0,0,0,0,0,0,0,0,0,0,0,0,0,0,0,0,0,0,0,0,0,0,0,0,0,0,0,0,0,0,0,0,0,0,0,0,0,0,0,0,0,0,0,0,0,0,0,0,0,0,0,0,0,0,0,0,0,0,0],"split_type":[0,0,0,0,0,0,0,0,0,0,0,0,0,0,0,0,0,0,0,0,0,0,0,0,0,0,0,0,0,0,0,0,0,0,0,0,0,0,0,0,0,0,0,0,0,0,0,0,0,0,0,0,0,0,0,0,0,0,0,0,0,0,0,0,0,0,0,0,0,0,0,0,0,0,0,0,0,0,0,0,0,0,0,0,0,0,0,0,0,0,0,0,0,0,0,0,0,0,0,0,0,0,0,0,0,0,0,0,0,0,0,0,0,0,0,0,0,0,0,0,0,0,0,0,0,0,0],"sum_hessian":[4E4,3.6404E4,3.596E3,3.3436E4,2.968E3,2.345E3,1.251E3,3.0617E4,2.819E3,1.407E3,1.561E3,1.451E3,8.94E2,5.9E2,6.61E2,2.8432E4,2.185E3,1.565E3,1.254E3,9.52E2,4.55E2,7.83E2,7.78E2,9.22E2,5.29E2,2.07E2,6.87E2,4.3E2,1.6E2,1.82E2,4.79E2,2.7181E4,1.251E3,1.253E3,9.32E2,9.23E2,6.42E2,8.36E2,4.18E2,4.83E2,4.69E2,3.15E2,1.4E2,3.11E2,4.72E2,5.08E2,2.7E2,5.23E2,3.99E2,2.39E2,2.9E2,7.2E1,1.35E2,2.53E2,4.34E2,3.12E2,1.18E2,5.2E1,1.08E2,1.7E2,1.2E1,2.48E2,2.31E2,1.9828E4,7.353E3,5.8E2,6.71E2,8.72E2,3.81E2,3.76E2,5.56E2,7.16E2,2.07E2,2.96E2,3.46E2,3.6E2,4.76E2,1.65E2,2.53E2,1.34E2,3.49E2,2E2,2.69E2,1.41E2,1.74E2,5E1,9E1,1.82E2,1.29E2,3.76E2,9.6E1,2.4E2,2.68E2,5.8E1,2.12E2,1.84E2,3.39E2,2.52E2,1.47E2,1.71E2,6.8E1,2.24E2,6.6E1,2.6E1,4.6E1,5.5E1,8E1,2.39E2,1.4E1,3.87E2,4.7E1,1.47E2,1.65E2,8.6E1,3.2E1,3.2E1,2E1,9.9E1,9E0,9.2E1,7.8E1,7E0,5E0,1.23E2,1.25E2,1.53E2,7.8E1],"tree_param":{"num_deleted":"0","num_feature":"4","num_nodes":"127","size_leaf_vector":"1"}},{"base_weights":[4.8891785E2,-4.588971E4,4.483131E5,-6.0065508E4,9.651717E4,3.0627372E5,6.161049E5,-6.418156E4,-1.8548604E4,4.606586E4,1.4197266E5,3.7718634E5,2.3162861E5,8.084927E5,5.2129312E5,-6.5328875E4,-5.1538145E4,-3.0727756E4,-1.8093298E3,5.758533E4,4.6635615E3,1.9790217E5,1.0783491E5,2.9334916E5,5.1432625E5,8.466327E4,2.5305875E5,6.644649E5,9.511857E5,3.9073734E5,6.2984894E5,-6.346309E4,-6.623792E4,-5.641187E4,-4.661929E4,-1.6784184E4,-4.2501273E4,3.9451062E4,-9.910218E3,3.8007914E4,9.843249E4,-3.197024E4,1.327419E4,1.5613886E5,2.5546234E5,7.23331E4,1.3933416E5,3.5529828E5,2.0992095E5,4.7832878E5,5.985452E5,1.03028586E5,7.3546414E4,3.279424E5,2.0528814E5,6.8119206E5,-9.71573E4,8.794984E5,3.3052647E5,4.94053E5,3.0781097E5,7.732938E5,4.8068884E5,-2.1509822E4,-1.8904111E4,-1.9947385E4,-1.8364102E4,-1.5474735E4,-1.8327129E4,-1.1341573E4,-1.5537657E4,-8.550393E3,-3.0015708E3,-1.5662949E4,-9.759953E3,8.84371E3,1.9690637E4,-7.0854644E3,4.4239606E2,2.5818342E4,6.8087866E3,2.2739685E3,3.0752758E4,-1.4996048E4,-9.068378E2,3.0475713E4,2.9750781E3,5.608198E4,3.621173E4,8.20665E4,5.4140516E4,3.0934057E4,8.80901E3,4.8215527E4,2.3764578E4,9.230166E4,1.2015451E5,1.0633323E5,4.1076977E4,1.099396E5,1.5063895E5,1.448484E5,1.876875E5,2.681031E4,-7.376463E3,7.500194E4,1.2273777E5,8.556642E4,5.3378664E4,2.1708136E5,1.6168428E5,-6.2993332E4,8.696483E4,3.0851438E5,2.4469167E5,6.713787E4,1.594126E5,6.776402E4,1.2664206E5,2.7225812E5,1.8923044E5,3.1146787E4,1.5063819E5],"categories":[],"categories_nodes":[],"categories_segments":[],"categories_sizes":[],"default_left":[0,0,0,0,0,0,0,0,0,0,0,0,0,0,0,0,0,0,0,0,0,0,0,0,0,0,0,0,0,0,0,0,0,0,0,0,0,0,0,0,0,0,0,0,0,0,0,0,0,0,0,0,0,0,0,0,0,0,0,0,0,0,0,0,0,0,0,0,0,0,0,0,0,0,0,0,0,0,0,0,0,0,0,0,0,0,0,0,0,0,0,0,0,0,0,0,0,0,0,0,0,0,0,0,0,0,0,0,0,0,0,0,0,0,0,0,0,0,0,0,0,0,0],"id":3,"left_children":[1,3,5,7,9,11,13,15,17,19,21,23,25,27,29,31,33,35,37,39,41,43,45,47,49,51,53,55,57,59,61,63,65,67,69,71,73,75,77,79,81,83,85,87,89,91,93,95,97,99,101,-1,103,105,107,109,111,113,-1,115,117,119,121,-1,-1,-1,-1,-1,-1,-1,-1,-1,-1,-1,-1,-1,-1,-1,-1,-1,-1,-1,-1,-1,-1,-1,-1,-1,-1,-1,-1,-1,-1,-1,-1,-1,-1,-1,-1,-1,-1,-1,-1,-1,-1,-1,-1,-1,-1,-1,-1,-1,-1,-1,-1,-1,-1,-1,-1,-1,-1,-1,-1],"loss_changes":[8.308202E14,7.3180765E13,8.928049E13,5.6323966E12,7.520037E12,1.0684453E13,3.095242E13,4.3171132E11,6.064581E11,7.4231526E11,3.2741282E12,1.1829464E13,3.1091704E12,1.100025E13,1.612324E13,4.242958E10,5.7303106E10,2.819786E11,4.1953522E11,9.702715E11,1.07674E11,1.5298619E12,1.1909548E12,3.2796437E12,9.081675E11,3.4295402E11,3.0341385E12,3.6970357E12,2.0749054E12,4.3630492E12,1.3086547E13,2.8907143E10,1.9428016E10,2.5114706E10,5.5034774E10,6.2464344E10,8.859327E10,5.1854115E10,1.637457E11,6.0507265E11,1.4515175E11,3.374862E10,8.0822436E10,3.932485E11,3.210488E11,6.675439E11,7.174892E11,6.7572335E11,2.8948772E12,5.641381E11,5.515929E10,0E0,1.9472168E11,2.02363E12,1.1126922E12,1.2931962E12,3.665312E11,1.02468524E12,0E0,2.2312858E12,2.667938E12,5.530559E12,2.4605717E12,0E0,0E0,0E0,0E0,0E0,0E0,0E0,0E0,0E0,0E0,0E0,0E0,0E0,0E0,0E0,0E0,0E0,0E0,0E0,0E0,0E0,0E0,0E0,0E0,0E0,0E0,0E0,0E0,0E0,0E0,0E0,0E0,0E0,0E0,0E0,0E0,0E0,0E0,0E0,0E0,0E0,0E0,0E0,0E0,0E0,0E0,0E0,0E0,0E0,0E0,0E0,0E0,0E0,0E0,0E0,0E0,0E0,0E0,0E0,0E0],"parents":[2147483647,0,0,1,1,2,2,3,3,4,4,5,5,6,6,7,7,8,8,9,9,10,10,11,11,12,12,13,13,14,14,15,15,16,16,17,17,18,18,19,19,20,20,21,21,22,22,23,23,24,24,25,25,26,26,27,27,28,28,29,29,30,30,31,31,32,32,33,33,34,34,35,35,36,36,37,37,38,38,39,39,40,40,41,41,42,42,43,43,44,44,45,45,46,46,47,47,48,48,49,49,50,50,52,52,53,53,54,54,55,55,56,56,57,57,59,59,60,60,61,61,62,62],"right_children":[2,4,6,8,10,12,14,16,18,20,22,24,26,28,30,32,34,36,38,40,42,44,46,48,50,52,54,56,58,60,62,64,66,68,70,72,74,76,78,80,82,84,86,88,90,92,94,96,98,100,102,-1,104,106,108,110,112,114,-1,116,118,120,122,-1,-1,-1,-1,-1,-1,-1,-1,-1,-1,-1,-1,-1,-1,-1,-1,-1,-1,-1,-1,-1,-1,-1,-1,-1,-1,-1,-1,-1,-1,-1,-1,-1,-1,-1,-1,-1,-1,-1,-1,-1,-1,-1,-1,-1,-1,-1,-1,-1,-1,-1,-1,-1,-1,-1,-1,-1,-1,-1,-1],"split_conditions":[3.0653452E6,1.0027612E6,5.735446E6,3.4684725E5,1.7462535E6,1.0235337E6,1.3374551E6,1.4192189E5,6.2804994E5,4.586165E5,4.586165E5,4.319486E6,3.5654412E6,7.0830795E6,7.8111005E6,1.2758555E4,2.16939E5,1.0112154E5,1.19681836E5,1.4084406E6,1.3259879E6,2.3174275E6,2.451673E6,7.438076E5,2.1788082E6,5.0922247E5,1.3374551E6,1.2526769E6,8.672401E6,1.855249E6,2.3699852E6,1.4E-1,3.0958804E-1,3.9843746E4,5.462787E4,4.1272847E5,5.0426897E5,7.93388E5,7.93388E5,1.796523E5,3.0164194E-1,5.3810594E5,3.0038792E-1,3.0583088E5,4.3320853E5,6.7873994E5,8.279753E5,3.5045433E-1,3.286197E-1,3.2E-1,5.9271606E5,1.03028586E5,3.8047114E-1,3.584648E-1,3.286197E-1,1.1147665E6,6.3656185E6,2.3123292E6,3.3052647E5,1.0486201E6,7.0830795E6,2.6483892E6,1.4638066E6,-2.1509822E4,-1.8904111E4,-1.9947385E4,-1.8364102E4,-1.5474735E4,-1.8327129E4,-1.1341573E4,-1.5537657E4,-8.550393E3,-3.0015708E3,-1.5662949E4,-9.759953E3,8.84371E3,1.9690637E4,-7.0854644E3,4.4239606E2,2.5818342E4,6.8087866E3,2.2739685E3,3.0752758E4,-1.4996048E4,-9.068378E2,3.0475713E4,2.9750781E3,5.608198E4,3.621173E4,8.20665E4,5.4140516E4,3.0934057E4,8.80901E3,4.8215527E4,2.3764578E4,9.230166E4,1.2015451E5,1.0633323E5,4.1076977E4,1.099396E5,1.5063895E5,1.448484E5,1.876875E5,2.681031E4,-7.376463E3,7.500194E4,1.2273777E5,8.556642E4,5.3378664E4,2.1708136E5,1.6168428E5,-6.2993332E4,8.696483E4,3.0851438E5,2.4469167E5,6.713787E4,1.594126E5,6.776402E4,1.2664206E5,2.7225812E5,1.8923044E5,3.1146787E4,1.5063819E5],"split_indices":[0,0,0,0,0,3,3,0,0,3,3,0,0,0,0,3,0,3,3,0,0,0,0,3,2,2,3,3,0,3,3,1,1,3,3,0,0,0,0,3,1,3,1,3,3,3,3,1,1,1,3,0,1,1,1,3,0,2,0,2,0,2,2,0,0,0,0,0,0,0,0,0,0,0,0,0,0,0,0,0,0,0,0,0,0,0,0,0,0,0,0,0,0,0,0,0,0,0,0,0,0,0,0,0,0,0,0,0,0,0,0,0,0,0,0,0,0,0,0,0,0,0,0],"split_type":[0,0,0,0,0,0,0,0,0,0,0,0,0,0,0,0,0,0,0,0,0,0,0,0,0,0,0,0,0,0,0,0,0,0,0,0,0,0,0,0,0,0,0,0,0,0,0,0,0,0,0,0,0,0,0,0,0,0,0,0,0,0,0,0,0,0,0,0,0,0,0,0,0,0,0,0,0,0,0,0,0,0,0,0,0,0,0,0,0,0,0,0,0,0,0,0,0,0,0,0,0,0,0,0,0,0,0,0,0,0,0,0,0,0,0,0,0,0,0,0,0,0,0],"sum_hessian":[4E4,3.6247E4,3.753E3,3.2966E4,3.281E3,2.034E3,1.719E3,2.9992E4,2.974E3,1.556E3,1.725E3,1.041E3,9.93E2,5.65E2,1.154E3,2.7493E4,2.499E3,1.721E3,1.253E3,1.217E3,3.39E2,6.52E2,1.073E3,6.48E2,3.93E2,1.27E2,8.66E2,2.84E2,2.81E2,5.26E2,6.28E2,9.03E3,1.8463E4,1.25E3,1.249E3,7.89E2,9.32E2,2.05E2,1.048E3,8.24E2,3.93E2,6.4E1,2.75E2,3.8E2,2.72E2,5.06E2,5.67E2,3.7E2,2.78E2,2.8E2,1.13E2,4E0,1.23E2,3.35E2,5.31E2,2.78E2,6E0,1.95E2,8.6E1,2.32E2,2.94E2,3.18E2,3.1E2,4.59E2,8.571E3,1.7565E4,8.98E2,6.21E2,6.29E2,4.65E2,7.84E2,2.88E2,5.01E2,4.7E2,4.62E2,1.5E2,5.5E1,4.75E2,5.73E2,1.98E2,6.26E2,1.7E1,3.76E2,3.9E1,2.5E1,9E0,2.66E2,2.01E2,1.79E2,2.17E2,5.5E1,2.94E2,2.12E2,4.17E2,1.5E2,1.84E2,1.86E2,9.2E1,1.86E2,5.2E1,2.28E2,2.5E1,8.8E1,1.06E2,1.7E1,1.73E2,1.62E2,1.33E2,3.98E2,2.11E2,6.7E1,5E0,1E0,5.4E1,1.41E2,2.9E1,2.03E2,1.73E2,1.21E2,1.61E2,1.57E2,1.7E1,2.93E2],"tree_param":{"num_deleted":"0","num_feature":"4","num_nodes":"123","size_leaf_vector":"1"}},{"base_weights":[4.4303284E2,-2.9049238E4,3.485914E5,-4.0974863E4,9.2632125E4,2.6710062E5,4.7022372E5,-4.4577977E4,-3.8162566E3,6.186568E4,1.3360294E5,3.3920862E5,1.7705597E5,5.915428E5,3.6120588E5,-4.551859E4,-3.1309146E4,-1.42725E4,1.0602853E4,8.232066E4,3.4633895E4,1.9380456E5,9.492152E4,2.6645938E5,4.085726E5,1.3492505E5,2.185632E5,5.550263E5,7.717917E5,3.055651E5,4.7236253E5,-4.5853484E4,-4.1072094E4,-2.8451568E4,-4.154098E4,7.710045E3,-1.9430924E4,2.409312E4,-2.5389098E4,6.238795E4,1.2354939E5,7.61736E3,5.0711562E4,1.5110675E5,2.2675523E5,1.0541804E5,1.8342646E4,3.075631E5,2.1666369E5,3.843287E5,5.259757E5,1.1681644E5,2.4724583E5,2.8267662E5,1.4054992E5,6.457529E5,4.9339366E5,8.0488906E5,4.0335588E5,3.781734E5,2.0281712E5,6.0919975E5,2.2215484E5,-1.3571157E4,-1.4403566E4,-1.0437374E4,-1.2979864E4,-1.0184012E4,-6.477866E3,-1.1271678E4,-1.4503063E4,1.6291388E2,8.867479E3,-4.744486E3,-1.1109633E4,1.3335552E4,3.4682502E3,-5.143668E3,-1.1691875E4,-7.265862E3,1.969182E4,1.2404034E4,3.9011496E4,-1.6451478E3,8.635395E3,-2.3987584E4,1.7382314E4,5.599748E4,1.3970451E4,4.1027344E3,7.015077E4,3.3836523E4,-2.4964033E3,-1.4274588E4,1.1861658E4,1.109091E5,8.54297E4,3.2225705E4,8.149507E4,1.0201652E5,1.27714086E5,1.2702636E5,1.6864592E5,4.9065438E4,1.0927617E4,1.1498322E4,1.3867694E5,9.161734E4,3.0428348E4,1.4834128E5,3.485231E4,1.8007966E5,2.346063E5,9.0125234E4,1.6947934E5,1.6057673E5,2.5212597E5,-1.6434957E4,2.617355E5,1.6406834E5,9.3837164E4,7.786834E4,4.1002605E4,9.5657234E4,2.4609948E5,-1.683808E4,1.0560852E5],"categories":[],"categories_nodes":[],"categories_segments":[],"categories_sizes":[],"default_left":[0,0,0,0,0,0,0,0,0,0,0,0,0,0,0,0,0,0,0,0,0,0,0,0,0,0,0,0,0,0,0,0,0,0,0,0,0,0,0,0,0,0,0,0,0,0,0,0,0,0,0,0,0,0,0,0,0,0,0,0,0,0,0,0,0,0,0,0,0,0,0,0,0,0,0,0,0,0,0,0,0,0,0,0,0,0,0,0,0,0,0,0,0,0,0,0,0,0,0,0,0,0,0,0,0,0,0,0,0,0,0,0,0,0,0,0,0,0,0,0,0,0,0,0,0,0,0],"id":4,"left_children":[1,3,5,7,9,11,13,15,17,19,21,23,25,27,29,31,33,35,37,39,41,43,45,47,49,51,53,55,57,59,61,63,65,67,69,71,73,75,77,79,81,83,85,87,89,91,93,95,97,99,101,103,105,107,109,111,113,115,117,119,121,123,125,-1,-1,-1,-1,-1,-1,-1,-1,-1,-1,-1,-1,-1,-1,-1,-1,-1,-1,-1,-1,-1,-1,-1,-1,-1,-1,-1,-1,-1,-1,-1,-1,-1,-1,-1,-1,-1,-1,-1,-1,-1,-1,-1,-1,-1,-1,-1,-1,-1,-1,-1,-1,-1,-1,-1,-1,-1,-1,-1,-1,-1,-1,-1,-1],"loss_changes":[4.1072782E14,5.351843E13,3.083924E13,4.49668E12,4.1413887E12,1.2101213E13,1.6345219E13,3.8071278E11,4.4793738E11,1.04547117E12,3.2673754E12,5.134105E12,1.4307065E12,3.4616262E12,3.950036E12,4.0693137E10,5.817172E10,1.9541652E11,6.070524E11,8.749056E11,3.5101318E11,7.40949E11,6.9014756E11,9.772267E11,1.3063999E12,8.192844E11,2.0559828E12,2.449289E12,8.5818396E11,3.2357E12,7.362723E12,3.3181139E10,2.6222002E10,5.9193164E10,1.0089529E10,5.134421E10,8.819966E10,2.3140952E11,3.751651E10,2.0603129E11,1.8078132E11,8.418478E10,4.8358477E11,8.9441855E11,4.6300502E11,6.355325E11,1.4860329E11,2.8709172E11,1.3764542E12,6.669237E11,8.846836E10,1.3503478E12,2.5427003E12,9.118123E11,1.5903168E12,7.51678E11,3.9579885E12,3.932244E11,2.1969064E12,2.6860826E12,6.6260985E11,8.381805E12,2.874932E12,0E0,0E0,0E0,0E0,0E0,0E0,0E0,0E0,0E0,0E0,0E0,0E0,0E0,0E0,0E0,0E0,0E0,0E0,0E0,0E0,0E0,0E0,0E0,0E0,0E0,0E0,0E0,0E0,0E0,0E0,0E0,0E0,0E0,0E0,0E0,0E0,0E0,0E0,0E0,0E0,0E0,0E0,0E0,0E0,0E0,0E0,0E0,0E0,0E0,0E0,0E0,0E0,0E0,0E0,0E0,0E0,0E0,0E0,0E0,0E0,0E0,0E0,0E0,0E0],"parents":[2147483647,0,0,1,1,2,2,3,3,4,4,5,5,6,6,7,7,8,8,9,9,10,10,11,11,12,12,13,13,14,14,15,15,16,16,17,17,18,18,19,19,20,20,21,21,22,22,23,23,24,24,25,25,26,26,27,27,28,28,29,29,30,30,31,31,32,32,33,33,34,34,35,35,36,36,37,37,38,38,39,39,40,40,41,41,42,42,43,43,44,44,45,45,46,46,47,47,48,48,49,49,50,50,51,51,52,52,53,53,54,54,55,55,56,56,57,57,58,58,59,59,60,60,61,61,62,62],"right_children":[2,4,6,8,10,12,14,16,18,20,22,24,26,28,30,32,34,36,38,40,42,44,46,48,50,52,54,56,58,60,62,64,66,68,70,72,74,76,78,80,82,84,86,88,90,92,94,96,98,100,102,104,106,108,110,112,114,116,118,120,122,124,126,-1,-1,-1,-1,-1,-1,-1,-1,-1,-1,-1,-1,-1,-1,-1,-1,-1,-1,-1,-1,-1,-1,-1,-1,-1,-1,-1,-1,-1,-1,-1,-1,-1,-1,-1,-1,-1,-1,-1,-1,-1,-1,-1,-1,-1,-1,-1,-1,-1,-1,-1,-1,-1,-1,-1,-1,-1,-1,-1,-1,-1,-1,-1,-1],"split_conditions":[3.746147E6,1.2587292E6,6.671301E6,4.31193E5,2.451673E6,1.2526769E6,1.855249E6,2.0500994E5,7.93388E5,4.586165E5,6.2046494E5,4.8111995E6,5.257109E6,9.069028E6,9.069028E6,3.0923823E-1,1.0112154E5,8.649518E4,3.0583088E5,1.8466218E6,1.7462535E6,2.8194788E6,1.1901341E6,8.726767E5,2.4736712E6,3.8825074E-1,1.855249E6,1.1147665E6,3.9932248E-1,3.6E-1,3.1610462E6,2.3879598E4,2.4456799E4,2.9271453E5,1.2658238E5,5.885583E5,2.201188E5,1.796523E5,3.8446328E5,2.268409E5,3.0164194E-1,3.5923606E-1,3.0164194E-1,5.0931047E5,4.7666206E5,3.9071035E-1,3.286197E-1,3.286197E-1,3.3960062E-1,5.475194E6,3.4001622E-1,3.491608E-1,4.8111995E6,3.8925678E-1,8.977256E5,8.24682E6,3.286197E-1,3.286197E-1,9.494634E6,1.6630175E6,2.8815802E6,3.377904E-1,3.429434E6,-1.3571157E4,-1.4403566E4,-1.0437374E4,-1.2979864E4,-1.0184012E4,-6.477866E3,-1.1271678E4,-1.4503063E4,1.6291388E2,8.867479E3,-4.744486E3,-1.1109633E4,1.3335552E4,3.4682502E3,-5.143668E3,-1.1691875E4,-7.265862E3,1.969182E4,1.2404034E4,3.9011496E4,-1.6451478E3,8.635395E3,-2.3987584E4,1.7382314E4,5.599748E4,1.3970451E4,4.1027344E3,7.015077E4,3.3836523E4,-2.4964033E3,-1.4274588E4,1.1861658E4,1.109091E5,8.54297E4,3.2225705E4,8.149507E4,1.0201652E5,1.27714086E5,1.2702636E5,1.6864592E5,4.9065438E4,1.0927617E4,1.1498322E4,1.3867694E5,9.161734E4,3.0428348E4,1.4834128E5,3.485231E4,1.8007966E5,2.346063E5,9.0125234E4,1.6947934E5,1.6057673E5,2.5212597E5,-1.6434957E4,2.617355E5,1.6406834E5,9.3837164E4,7.786834E4,4.1002605E4,9.5657234E4,2.4609948E5,-1.683808E4,1.0560852E5],"split_indices":[0,0,0,0,0,3,3,0,0,3,3,0,0,0,0,1,3,3,3,0,0,0,3,3,2,1,3,3,1,1,3,3,3,0,3,0,3,3,3,2,1,1,1,3,2,1,1,1,1,0,1,1,0,1,2,0,1,1,0,2,2,1,2,0,0,0,0,0,0,0,0,0,0,0,0,0,0,0,0,0,0,0,0,0,0,0,0,0,0,0,0,0,0,0,0,0,0,0,0,0,0,0,0,0,0,0,0,0,0,0,0,0,0,0,0,0,0,0,0,0,0,0,0,0,0,0,0],"split_type":[0,0,0,0,0,0,0,0,0,0,0,0,0,0,0,0,0,0,0,0,0,0,0,0,0,0,0,0,0,0,0,0,0,0,0,0,0,0,0,0,0,0,0,0,0,0,0,0,0,0,0,0,0,0,0,0,0,0,0,0,0,0,0,0,0,0,0,0,0,0,0,0,0,0,0,0,0,0,0,0,0,0,0,0,0,0,0,0,0,0,0,0,0,0,0,0,0,0,0,0,0,0,0,0,0,0,0,0,0,0,0,0,0,0,0,0,0,0,0,0,0,0,0,0,0,0,0],"sum_hessian":[4E4,3.6877E4,3.123E3,3.3586E4,3.291E3,1.872E3,1.251E3,3.0617E4,2.969E3,1.881E3,1.41E3,1.038E3,8.34E2,5.9E2,6.61E2,2.8588E4,2.029E3,1.721E3,1.248E3,1.073E3,8.08E2,5.5E2,8.6E2,5.09E2,5.29E2,4.16E2,4.18E2,4.94E2,9.6E1,4.43E2,2.18E2,2.6577E4,2.011E3,1.589E3,4.4E2,3.27E2,1.394E3,9.08E2,3.4E2,7.25E2,3.48E2,3.02E2,5.06E2,2.42E2,3.08E2,7.56E2,1.04E2,2.76E2,2.33E2,4.42E2,8.7E1,3.6E2,5.6E1,2.28E2,1.9E2,1.96E2,2.98E2,8.7E1,9E0,2.58E2,1.85E2,1.4E2,7.8E1,2.0691E4,5.886E3,5.25E2,1.486E3,8.8E2,7.09E2,2.82E2,1.58E2,2.47E2,8E1,1.158E3,2.36E2,3.45E2,5.63E2,2.13E2,1.27E2,2.6E1,6.99E2,2.6E1,3.22E2,1.87E2,1.15E2,2.6E1,4.8E2,1.8E2,6.2E1,1E1,2.98E2,7.1E2,4.6E1,2.5E1,7.9E1,7E1,2.06E2,7.9E1,1.54E2,2.18E2,2.24E2,2.6E1,6.1E1,2.27E2,1.33E2,2.9E1,2.7E1,2.02E2,2.6E1,1.1E1,1.79E2,1.51E2,4.5E1,8.2E1,2.16E2,1.2E1,7.5E1,5E0,4E0,7E1,1.88E2,9.8E1,8.7E1,6E1,8E1,2.5E1,5.3E1],"tree_param":{"num_deleted":"0","num_feature":"4","num_nodes":"127","size_leaf_vector":"1"}},{"base_weights":[4.0079904E2,-2.2063535E4,2.2776073E5,-2.9133572E4,5.3054746E4,1.7697636E5,3.4318256E5,-3.147115E4,-7.762427E3,3.0793201E4,7.541059E4,2.2441217E5,1.3474127E5,4.1311353E5,2.1817086E5,-3.2037602E4,-2.5228953E4,-1.6951559E4,5.924426E2,5.882153E4,1.6344338E4,9.592581E4,3.78052E4,1.5683512E5,3.0620194E5,1.2073541E5,2.4701648E5,3.1968347E5,4.678958E5,1.2719535E5,2.8963472E5,-3.7992703E4,-3.189948E4,-2.2709893E4,-2.8536207E4,-5.1908306E3,-2.317207E4,1.5376611E4,-8.627301E3,4.6985695E4,9.3801734E4,-2.4799858E3,2.592427E4,5.3685703E4,1.1766292E5,5.071416E3,5.0655074E4,1.8800158E5,1.2286845E5,2.1422522E5,3.2890778E5,6.4653246E4,1.3843928E5,3.4574625E5,1.25443375E5,4.661168E5,2.495719E5,4.2828622E5,6.7523606E5,2.9182666E5,5.5802973E4,6.5107075E5,2.2499439E5,-1.0762901E4,-1.2160745E4,-9.333472E3,-9.959635E3,-7.413514E3,-3.819384E3,-9.961467E3,-7.8288657E3,-3.5870747E3,-2.6582762E1,-7.79652E3,-3.6672175E3,3.2603418E3,1.1358849E4,-4.6376714E3,-9.2603325E1,1.8501785E4,8.638038E3,1.8424713E4,3.407708E4,-8.766683E3,2.4425625E3,8.657694E3,-2.3678178E4,1.1712689E4,5.3487137E4,2.9413525E4,5.7003824E4,1.1723571E4,-7.258318E3,-3.1149076E4,1.659795E4,5.3878906E4,1.1978289E5,5.460699E4,2.733138E4,7.680206E4,1.177811E4,7.2365875E4,1.0635843E5,1.561872E4,1.1206407E5,6.453109E4,3.541573E4,-2.498869E4,1.1449771E5,1.031121E5,5.4988203E3,8.662565E4,1.5510947E5,1.142274E5,5.108463E4,1.3998497E5,6.61658E4,2.3103861E5,1.1549565E5,2.2001113E4,1.6583378E5,4.2850043E4,-1.0926754E4,1.10212625E5,2.6012216E5,7.720972E4,-2.9049367E4],"categories":[],"categories_nodes":[],"categories_segments":[],"categories_sizes":[],"default_left":[0,0,0,0,0,0,0,0,0,0,0,0,0,0,0,0,0,0,0,0,0,0,0,0,0,0,0,0,0,0,0,0,0,0,0,0,0,0,0,0,0,0,0,0,0,0,0,0,0,0,0,0,0,0,0,0,0,0,0,0,0,0,0,0,0,0,0,0,0,0,0,0,0,0,0,0,0,0,0,0,0,0,0,0,0,0,0,0,0,0,0,0,0,0,0,0,0,0,0,0,0,0,0,0,0,0,0,0,0,0,0,0,0,0,0,0,0,0,0,0,0,0,0,0,0,0,0],"id":5,"left_children":[1,3,5,7,9,11,13,15,17,19,21,23,25,27,29,31,33,35,37,39,41,43,45,47,49,51,53,55,57,59,61,63,65,67,69,71,73,75,77,79,81,83,85,87,89,91,93,95,97,99,101,103,105,107,109,111,113,115,117,119,121,123,125,-1,-1,-1,-1,-1,-1,-1,-1,-1,-1,-1,-1,-1,-1,-1,-1,-1,-1,-1,-1,-1,-1,-1,-1,-1,-1,-1,-1,-1,-1,-1,-1,-1,-1,-1,-1,-1,-1,-1,-1,-1,-1,-1,-1,-1,-1,-1,-1,-1,-1,-1,-1,-1,-1,-1,-1,-1,-1,-1,-1,-1,-1,-1,-1],"loss_changes":[2.0430972E14,1.933584E13,2.1023546E13,1.6620139E12,1.5563982E12,4.978404E12,9.508789E12,1.0524348E11,2.5198228E11,6.3525814E11,1.2014301E12,6.451859E12,2.0537556E12,3.4485903E12,2.5377406E12,2.1401436E10,2.0179976E10,1.1422528E11,2.345794E11,2.1667932E11,1.8725277E11,9.2104294E11,2.3234865E11,6.607696E11,1.0384887E12,1.1626359E12,1.7090489E12,2.5838066E12,3.3325926E12,2.052317E12,5.016811E12,1.8718392E9,2.6480738E10,2.8130345E10,1.140215E10,1.8709897E10,3.1193825E10,6.6604646E10,6.023453E10,1.0536662E11,7.8900625E10,9.9940475E10,2.1398143E11,6.2253924E11,9.26656E11,1.5719925E11,2.9224606E11,5.231891E11,5.696604E11,7.794637E11,8.6703813E11,1.0889834E12,1.3750071E12,1.264438E12,1.5600986E12,6.092646E11,1.8074734E12,2.867092E12,1.6039564E12,2.9812793E12,1.0004795E12,1.7036686E12,1.9939092E12,0E0,0E0,0E0,0E0,0E0,0E0,0E0,0E0,0E0,0E0,0E0,0E0,0E0,0E0,0E0,0E0,0E0,0E0,0E0,0E0,0E0,0E0,0E0,0E0,0E0,0E0,0E0,0E0,0E0,0E0,0E0,0E0,0E0,0E0,0E0,0E0,0E0,0E0,0E0,0E0,0E0,0E0,0E0,0E0,0E0,0E0,0E0,0E0,0E0,0E0,0E0,0E0,0E0,0E0,0E0,0E0,0E0,0E0,0E0,0E0,0E0,0E0,0E0,0E0],"parents":[2147483647,0,0,1,1,2,2,3,3,4,4,5,5,6,6,7,7,8,8,9,9,10,10,11,11,12,12,13,13,14,14,15,15,16,16,17,17,18,18,19,19,20,20,21,21,22,22,23,23,24,24,25,25,26,26,27,27,28,28,29,29,30,30,31,31,32,32,33,33,34,34,35,35,36,36,37,37,38,38,39,39,40,40,41,41,42,42,43,43,44,44,45,45,46,46,47,47,48,48,49,49,50,50,51,51,52,52,53,53,54,54,55,55,56,56,57,57,58,58,59,59,60,60,61,61,62,62],"right_children":[2,4,6,8,10,12,14,16,18,20,22,24,26,28,30,32,34,36,38,40,42,44,46,48,50,52,54,56,58,60,62,64,66,68,70,72,74,76,78,80,82,84,86,88,90,92,94,96,98,100,102,104,106,108,110,112,114,116,118,120,122,124,126,-1,-1,-1,-1,-1,-1,-1,-1,-1,-1,-1,-1,-1,-1,-1,-1,-1,-1,-1,-1,-1,-1,-1,-1,-1,-1,-1,-1,-1,-1,-1,-1,-1,-1,-1,-1,-1,-1,-1,-1,-1,-1,-1,-1,-1,-1,-1,-1,-1,-1,-1,-1,-1,-1,-1,-1,-1,-1,-1,-1,-1,-1,-1,-1],"split_conditions":[3.2210035E6,1.1383385E6,7.0830795E6,3.4684725E5,1.9464819E6,1.0656891E6,2.3699852E6,1.4192189E5,5.885583E5,2.7627834E5,6.7873994E5,4.521108E6,2.6483892E6,3.377904E-1,8.672401E6,1.4E-1,5.462787E4,8.649518E4,1.6755125E5,1.6726849E6,1.4084406E6,3.3083582E-1,2.451673E6,7.438076E5,3.201829E-1,4.1374498E6,1.855249E6,1.1147665E6,9.494634E6,1.5475089E6,2.6871712E6,9.84009E3,1.991547E4,2.5946561E5,2.2896764E5,4.1272847E5,2.1494645E5,9.5113044E5,8.97952E5,2.0965316E5,3.584648E-1,2.3885908E5,8.553359E5,1.3174159E6,1.0486201E6,4.366423E5,4.1566822E5,2.0294946E6,3.286197E-1,9.685715E5,5.064162E6,3.9139E-1,3.2088462E-1,5.735446E6,2.8815802E6,8.726767E5,2.3123292E6,3.8960853E-1,3.8825074E-1,1.4638066E6,7.8111005E6,3.1180218E6,3.9139E-1,-1.0762901E4,-1.2160745E4,-9.333472E3,-9.959635E3,-7.413514E3,-3.819384E3,-9.961467E3,-7.8288657E3,-3.5870747E3,-2.6582762E1,-7.79652E3,-3.6672175E3,3.2603418E3,1.1358849E4,-4.6376714E3,-9.2603325E1,1.8501785E4,8.638038E3,1.8424713E4,3.407708E4,-8.766683E3,2.4425625E3,8.657694E3,-2.3678178E4,1.1712689E4,5.3487137E4,2.9413525E4,5.7003824E4,1.1723571E4,-7.258318E3,-3.1149076E4,1.659795E4,5.3878906E4,1.1978289E5,5.460699E4,2.733138E4,7.680206E4,1.177811E4,7.2365875E4,1.0635843E5,1.561872E4,1.1206407E5,6.453109E4,3.541573E4,-2.498869E4,1.1449771E5,1.031121E5,5.4988203E3,8.662565E4,1.5510947E5,1.142274E5,5.108463E4,1.3998497E5,6.61658E4,2.3103861E5,1.1549565E5,2.2001113E4,1.6583378E5,4.2850043E4,-1.0926754E4,1.10212625E5,2.6012216E5,7.720972E4,-2.9049367E4],"split_indices":[0,0,0,0,0,3,3,0,0,3,3,0,2,1,0,1,3,3,3,0,0,1,0,3,1,0,3,3,0,2,3,3,3,0,0,0,2,0,0,3,1,2,2,2,2,2,2,2,1,3,0,1,1,0,2,3,2,1,1,2,0,2,1,0,0,0,0,0,0,0,0,0,0,0,0,0,0,0,0,0,0,0,0,0,0,0,0,0,0,0,0,0,0,0,0,0,0,0,0,0,0,0,0,0,0,0,0,0,0,0,0,0,0,0,0,0,0,0,0,0,0,0,0,0,0,0,0],"split_type":[0,0,0,0,0,0,0,0,0,0,0,0,0,0,0,0,0,0,0,0,0,0,0,0,0,0,0,0,0,0,0,0,0,0,0,0,0,0,0,0,0,0,0,0,0,0,0,0,0,0,0,0,0,0,0,0,0,0,0,0,0,0,0,0,0,0,0,0,0,0,0,0,0,0,0,0,0,0,0,0,0,0,0,0,0,0,0,0,0,0,0,0,0,0,0,0,0,0,0,0,0,0,0,0,0,0,0,0,0,0,0,0,0,0,0,0,0,0,0,0,0,0,0,0,0,0,0],"sum_hessian":[4E4,3.6404E4,3.596E3,3.3273E4,3.131E3,2.499E3,1.097E3,2.9992E4,3.281E3,1.57E3,1.561E3,1.175E3,1.324E3,7.02E2,3.95E2,2.7493E4,2.499E3,1.562E3,1.719E3,5.33E2,1.037E3,1.009E3,5.52E2,6.45E2,5.3E2,1.179E3,1.45E2,2.62E2,4.4E2,1.75E2,2.2E2,6.17E2,2.6876E4,1.423E3,1.076E3,5.41E2,1.021E3,6.6E2,1.059E3,4E2,1.33E2,3.5E2,6.87E2,3.44E2,6.65E2,1.56E2,3.96E2,3.34E2,3.11E2,1.07E2,4.23E2,2.84E2,8.95E2,7.9E1,6.6E1,8.3E1,1.79E2,3.72E2,6.8E1,5.2E1,1.23E2,3.2E1,1.88E2,3.45E2,2.72E2,1.6746E4,1.013E4,1.184E3,2.39E2,3.65E2,7.11E2,2.32E2,3.09E2,8.11E2,2.1E2,5.51E2,1.09E2,5.81E2,4.78E2,2.2E2,1.8E2,5.2E1,8.1E1,9.9E1,2.51E2,6.69E2,1.8E1,3.09E2,3.5E1,5.25E2,1.4E2,7.2E1,8.4E1,1.1E1,3.85E2,3.23E2,1.1E1,1.07E2,2.04E2,8.6E1,2.1E1,9.8E1,3.25E2,2.74E2,1E1,1.86E2,7.09E2,6E0,7.3E1,2.1E1,4.5E1,2E1,6.3E1,6.6E1,1.13E2,3.13E2,5.9E1,5E1,1.8E1,2.9E1,2.3E1,6.3E1,6E1,1.5E1,1.7E1,1.71E2,1.7E1],"tree_param":{"num_deleted":"0","num_feature":"4","num_nodes":"127","size_leaf_vector":"1"}},{"base_weights":[3.4730966E2,-1.5078351E4,1.6414236E5,-2.0395797E4,3.8770633E4,1.2778093E5,2.4168314E5,-2.1768637E4,-2.2630234E3,2.1592354E4,5.447477E4,1.6042125E5,8.196049E4,3.585881E5,2.010358E5,-2.2362055E4,-1.545044E4,5.142967E3,-8.754053E3,4.132422E4,1.1420478E4,8.0962766E4,3.7221785E4,1.0741E5,1.9995788E5,7.1374484E4,1.5496592E5,2.922036E5,4.0958084E5,2.2475355E5,9.2306625E4,-2.3314574E4,-2.1716018E4,-1.244428E4,-1.9806766E4,-2.1019675E3,1.4926584E4,-1.7797213E4,-2.9511445E3,3.295767E4,6.605303E4,-6.1101597E3,1.69315E4,-1.7633123E4,8.8526836E4,2.5272535E4,5.855376E4,3.0215678E4,1.22629664E5,1.8469745E5,2.8880562E5,1.11279125E5,4.5628445E4,2.2927902E5,8.9431414E4,2.4015736E5,5.726661E5,4.5669753E5,2.3853039E5,1.8942308E5,3.1567034E5,-1.4285403E5,1.5330386E5,-7.980004E3,-6.92952E3,-6.1785386E3,-6.75106E3,-4.292665E3,7.1258316E1,-5.339045E3,-8.0402817E3,1.9598345E3,-1.5389395E3,7.612196E3,2.7019653E3,-6.722512E3,-3.7710134E3,1.1749369E3,-3.5149392E3,1.3284572E4,3.9900457E3,-8.7403125E3,2.0990494E4,3.3260037E3,-9.951624E3,8.944716E3,1.5829264E3,6.808191E3,-3.3166242E4,2.1047771E4,3.432734E4,3.1354888E3,1.702063E4,3.0791912E4,9.846726E3,5.1030637E2,8.4292375E4,8.274613E4,3.1143871E4,6.631717E4,4.869058E4,1.9569764E4,8.767389E4,2.0236363E4,5.3449504E4,3.3863113E4,6.5633887E3,3.9008066E4,1.3113048E5,7.358454E4,3.8850378E3,1.343901E5,4.2824477E4,1.8600408E5,9.482718E4,8.8502805E4,1.5959164E5,1.824899E5,4.7780285E4,6.3591133E4,-4.6585254E3,2.4014431E5,7.372613E4,-6.67435E4,6.642812E3,1.0880811E5,3.126988E4],"categories":[],"categories_nodes":[],"categories_segments":[],"categories_sizes":[],"default_left":[0,0,0,0,0,0,0,0,0,0,0,0,0,0,0,0,0,0,0,0,0,0,0,0,0,0,0,0,0,0,0,0,0,0,0,0,0,0,0,0,0,0,0,0,0,0,0,0,0,0,0,0,0,0,0,0,0,0,0,0,0,0,0,0,0,0,0,0,0,0,0,0,0,0,0,0,0,0,0,0,0,0,0,0,0,0,0,0,0,0,0,0,0,0,0,0,0,0,0,0,0,0,0,0,0,0,0,0,0,0,0,0,0,0,0,0,0,0,0,0,0,0,0,0,0,0,0],"id":6,"left_children":[1,3,5,7,9,11,13,15,17,19,21,23,25,27,29,31,33,35,37,39,41,43,45,47,49,51,53,55,57,59,61,63,65,67,69,71,73,75,77,79,81,83,85,87,89,91,93,95,97,99,101,103,105,107,109,111,113,115,117,119,121,123,125,-1,-1,-1,-1,-1,-1,-1,-1,-1,-1,-1,-1,-1,-1,-1,-1,-1,-1,-1,-1,-1,-1,-1,-1,-1,-1,-1,-1,-1,-1,-1,-1,-1,-1,-1,-1,-1,-1,-1,-1,-1,-1,-1,-1,-1,-1,-1,-1,-1,-1,-1,-1,-1,-1,-1,-1,-1,-1,-1,-1,-1,-1,-1,-1],"loss_changes":[1.0107087E14,1.0469058E13,9.676637E12,8.282534E11,8.852886E11,3.495512E12,5.1454673E12,1.1562962E11,1.1267889E11,3.1484366E11,7.811933E11,2.8477898E12,7.4477365E11,8.3492654E11,2.086142E12,1.6892559E10,3.4575286E10,7.76468E10,6.5490805E10,1.0830486E11,1.0038644E11,5.0571195E11,2.6387218E11,6.8594434E11,1.0082939E12,8.7436506E11,5.7851406E11,1.7016941E12,1.156378E12,2.0923348E12,2.1448343E12,7.491027E9,1.4420541E10,3.7270356E10,1.4761787E10,1.650458E10,2.8593086E10,1.1480728E10,4.5915783E10,8.8676205E10,5.1978306E10,1.1624725E11,1.1847426E11,1.8612339E11,2.9069777E11,3.1136753E11,4.1975887E11,7.002517E11,1.3838178E12,5.10516E11,6.7858596E10,9.699496E11,8.312619E11,1.1188946E12,7.954393E11,2.1222481E12,3.4835268E10,1.327925E12,9.582395E11,2.2445325E12,6.107989E12,4.1219654E11,1.17464E12,0E0,0E0,0E0,0E0,0E0,0E0,0E0,0E0,0E0,0E0,0E0,0E0,0E0,0E0,0E0,0E0,0E0,0E0,0E0,0E0,0E0,0E0,0E0,0E0,0E0,0E0,0E0,0E0,0E0,0E0,0E0,0E0,0E0,0E0,0E0,0E0,0E0,0E0,0E0,0E0,0E0,0E0,0E0,0E0,0E0,0E0,0E0,0E0,0E0,0E0,0E0,0E0,0E0,0E0,0E0,0E0,0E0,0E0,0E0,0E0,0E0,0E0,0E0,0E0],"parents":[2147483647,0,0,1,1,2,2,3,3,4,4,5,5,6,6,7,7,8,8,9,9,10,10,11,11,12,12,13,13,14,14,15,15,16,16,17,17,18,18,19,19,20,20,21,21,22,22,23,23,24,24,25,25,26,26,27,27,28,28,29,29,30,30,31,31,32,32,33,33,34,34,35,35,36,36,37,37,38,38,39,39,40,40,41,41,42,42,43,43,44,44,45,45,46,46,47,47,48,48,49,49,50,50,51,51,52,52,53,53,54,54,55,55,56,56,57,57,58,58,59,59,60,60,61,61,62,62],"right_children":[2,4,6,8,10,12,14,16,18,20,22,24,26,28,30,32,34,36,38,40,42,44,46,48,50,52,54,56,58,60,62,64,66,68,70,72,74,76,78,80,82,84,86,88,90,92,94,96,98,100,102,104,106,108,110,112,114,116,118,120,122,124,126,-1,-1,-1,-1,-1,-1,-1,-1,-1,-1,-1,-1,-1,-1,-1,-1,-1,-1,-1,-1,-1,-1,-1,-1,-1,-1,-1,-1,-1,-1,-1,-1,-1,-1,-1,-1,-1,-1,-1,-1,-1,-1,-1,-1,-1,-1,-1,-1,-1,-1,-1,-1,-1,-1,-1,-1,-1,-1,-1,-1,-1,-1,-1,-1],"split_conditions":[3.374225E6,1.1383385E6,7.0830795E6,4.7732878E5,1.9464819E6,1.2526769E6,1.3374551E6,1.85336E5,1.6755125E5,2.7627834E5,5.3810594E5,4.319486E6,2.6483892E6,7.8111005E6,3.1610462E6,6.7456E4,7.768732E4,6.675936E5,7.50717E5,1.6726849E6,1.3259879E6,3.0164194E-1,2.957043E6,6.588871E5,2.4736712E6,1.2605068E6,1.855249E6,3.429434E6,1.2526769E6,9.069028E6,3.2088462E-1,1.4921989E-1,1.5939247E4,3.9184128E5,1.2658238E5,3.2960445E-1,1.148601E5,6.2804994E5,2.7627834E5,3.584648E-1,3.0011645E-1,3.8446328E5,4.586165E5,4.586165E5,2.5661295E6,3.7164375E-1,7.438076E5,3.9139E-1,7.3918894E5,1.2605068E6,3.0958804E-1,9.4828544E5,3.2088462E-1,2.8815802E6,2.8815802E6,2.3123292E6,3.7918964E-1,7.779527E5,3.110274E-1,3.8055092E6,3.1881455E-1,3.429434E6,1.6630175E6,-7.980004E3,-6.92952E3,-6.1785386E3,-6.75106E3,-4.292665E3,7.1258316E1,-5.339045E3,-8.0402817E3,1.9598345E3,-1.5389395E3,7.612196E3,2.7019653E3,-6.722512E3,-3.7710134E3,1.1749369E3,-3.5149392E3,1.3284572E4,3.9900457E3,-8.7403125E3,2.0990494E4,3.3260037E3,-9.951624E3,8.944716E3,1.5829264E3,6.808191E3,-3.3166242E4,2.1047771E4,3.432734E4,3.1354888E3,1.702063E4,3.0791912E4,9.846726E3,5.1030637E2,8.4292375E4,8.274613E4,3.1143871E4,6.631717E4,4.869058E4,1.9569764E4,8.767389E4,2.0236363E4,5.3449504E4,3.3863113E4,6.5633887E3,3.9008066E4,1.3113048E5,7.358454E4,3.8850378E3,1.343901E5,4.2824477E4,1.8600408E5,9.482718E4,8.8502805E4,1.5959164E5,1.824899E5,4.7780285E4,6.3591133E4,-4.6585254E3,2.4014431E5,7.372613E4,-6.67435E4,6.642812E3,1.0880811E5,3.126988E4],"split_indices":[0,0,0,0,0,3,3,0,3,3,3,0,2,0,3,0,3,0,0,0,0,1,0,2,2,2,3,2,3,0,1,1,3,0,3,1,3,0,3,1,1,3,3,3,0,1,3,1,2,2,1,2,1,2,2,2,1,3,1,2,1,2,2,0,0,0,0,0,0,0,0,0,0,0,0,0,0,0,0,0,0,0,0,0,0,0,0,0,0,0,0,0,0,0,0,0,0,0,0,0,0,0,0,0,0,0,0,0,0,0,0,0,0,0,0,0,0,0,0,0,0,0,0,0,0,0,0],"split_type":[0,0,0,0,0,0,0,0,0,0,0,0,0,0,0,0,0,0,0,0,0,0,0,0,0,0,0,0,0,0,0,0,0,0,0,0,0,0,0,0,0,0,0,0,0,0,0,0,0,0,0,0,0,0,0,0,0,0,0,0,0,0,0,0,0,0,0,0,0,0,0,0,0,0,0,0,0,0,0,0,0,0,0,0,0,0,0,0,0,0,0,0,0,0,0,0,0,0,0,0,0,0,0,0,0,0,0,0,0,0,0,0,0,0,0,0,0,0,0,0,0,0,0,0,0,0,0],"sum_hessian":[4E4,3.6558E4,3.442E3,3.3273E4,3.285E3,2.345E3,1.097E3,3.0931E4,2.342E3,1.57E3,1.715E3,1.368E3,9.77E2,2.81E2,8.16E2,2.8273E4,2.658E3,1.094E3,1.248E3,5.33E2,1.037E3,6.75E2,1.04E3,5.86E2,7.82E2,8.55E2,1.22E2,1.25E2,1.56E2,6.69E2,1.47E2,1.1412E4,1.6861E4,1.575E3,1.083E3,6.29E2,4.65E2,4.87E2,7.61E2,4E2,1.33E2,2.48E2,7.89E2,4.8E1,6.27E2,6.68E2,3.72E2,9.7E1,4.89E2,6.7E2,1.12E2,3.34E2,5.21E2,5.6E1,6.6E1,1.07E2,1.8E1,1.21E2,3.5E1,4.84E2,1.85E2,3E1,1.17E2,6.97E2,1.0715E4,6.969E3,9.892E3,1.373E3,2.02E2,8.44E2,2.39E2,1.63E2,4.66E2,1.67E2,2.98E2,2.57E2,2.3E2,4.27E2,3.34E2,2.53E2,1.47E2,5E0,1.28E2,1.52E2,9.6E1,3.74E2,4.15E2,3.4E1,1.4E1,3.69E2,2.58E2,4.55E2,2.13E2,1.36E2,2.36E2,8.8E1,9E0,5.2E1,4.37E2,2.52E2,4.18E2,2E0,1.1E2,2.03E2,1.31E2,1.35E2,3.86E2,3.9E1,1.7E1,2.1E1,4.5E1,3.3E1,7.4E1,1.4E1,4E0,4E1,8.1E1,5E0,3E1,4.36E2,4.8E1,2.2E1,1.63E2,2E1,1E1,2.1E1,9.6E1],"tree_param":{"num_deleted":"0","num_feature":"4","num_nodes":"127","size_leaf_vector":"1"}},{"base_weights":[2.9930356E2,-1.0034234E4,1.22283914E5,-1.3973092E4,3.2350611E4,1.0166847E5,1.8358056E5,-1.5080353E4,1.9947393E3,2.3570354E4,4.8671918E4,1.2618471E5,5.4136848E4,2.6826712E5,1.2921041E5,-1.5612385E4,-9.285609E3,6.8356455E3,-8.0779688E3,3.6007656E4,1.2426449E4,7.973976E4,3.1871467E4,1.21258625E5,4.774346E5,5.987399E4,-9.472976E4,1.5516481E5,3.1321134E5,-1.0830212E5,1.340883E5,-1.7023969E4,-1.5327365E4,-6.783605E3,-1.3489201E4,3.8099697E3,2.562053E4,-1.1135787E4,2.5284953E4,2.5433596E4,6.4997645E4,-3.1942622E3,2.1039293E4,2.9603617E4,8.8388555E4,5.6022363E4,6.3798E3,9.9622836E4,1.7135139E5,1.5573498E5,7.206864E4,5.0511383E4,1.3877477E5,-3.0080566E5,2.3348469E4,2.5118852E5,-1.313027E5,5.416463E5,2.8349006E5,1.4675767E5,1.8062281E4,-5.3965674E3,-4.7255884E3,-4.2040693E3,-4.716082E3,-3.077725E3,-1.0694618E3,-4.6355996E3,-1.2193993E3,3.1224573E3,2.9505053E1,9.400531E3,-7.7826484E3,9.129541E2,-4.6579673E3,1.2996963E4,-9.515406E3,-1.0769877E4,8.574246E3,1.7179545E4,3.0046123E4,1.8593123E4,-3.034266E3,7.415163E3,-2.2364092E4,6.1225223E4,-7.1848016E2,1.5410434E4,3.1627004E4,9.051263E3,2.955447E4,1.7036607E4,-3.8318706E3,4.0396543E4,2.5775312E4,4.011068E4,7.344106E4,2.596677E3,2.0429658E4,-3.2339846E3,7.254547E4,-5.421165E4,-1.3974138E5,1.2971032E5,-1.3835563E4,1.18548586E5,6.061754E4,-1.0735352E5,3.1854473E4,6.7638664E4,1.78083E5,1.1098201E5,6.963558E4,6.194373E4,3.3768855E4,-1.0756273E5,3.0704035E4],"categories":[],"categories_nodes":[],"categories_segments":[],"categories_sizes":[],"default_left":[0,0,0,0,0,0,0,0,0,0,0,0,0,0,0,0,0,0,0,0,0,0,0,0,0,0,0,0,0,0,0,0,0,0,0,0,0,0,0,0,0,0,0,0,0,0,0,0,0,0,0,0,0,0,0,0,0,0,0,0,0,0,0,0,0,0,0,0,0,0,0,0,0,0,0,0,0,0,0,0,0,0,0,0,0,0,0,0,0,0,0,0,0,0,0,0,0,0,0,0,0,0,0,0,0,0,0,0,0,0,0,0,0,0,0,0,0],"id":7,"left_children":[1,3,5,7,9,11,13,15,17,19,21,23,25,27,29,31,33,35,37,39,41,43,45,47,49,51,53,55,57,-1,59,61,63,65,67,69,71,73,75,77,79,81,83,85,87,89,91,93,95,-1,-1,97,99,101,103,105,107,109,111,113,115,-1,-1,-1,-1,-1,-1,-1,-1,-1,-1,-1,-1,-1,-1,-1,-1,-1,-1,-1,-1,-1,-1,-1,-1,-1,-1,-1,-1,-1,-1,-1,-1,-1,-1,-1,-1,-1,-1,-1,-1,-1,-1,-1,-1,-1,-1,-1,-1,-1,-1,-1,-1,-1,-1,-1,-1],"loss_changes":[5.0423797E13,6.1571544E12,3.9289975E12,5.9662454E11,4.482581E11,2.7199642E12,3.579807E12,9.713903E10,1.0679313E11,2.824354E11,5.695199E11,2.61194E12,6.872186E11,1.5068918E12,1.1961966E12,1.1366564E10,2.7842707E10,8.396426E10,7.281618E10,2.938532E11,1.4509998E11,1.6389243E11,4.3859863E11,1.6335514E12,8.292506E10,5.6106366E11,7.3701556E11,2.4811644E12,1.3265325E12,0E0,6.970577E11,5.6625725E9,1.2197036E10,1.8611544E10,1.8250662E10,3.122383E10,6.121793E10,4.0638546E10,6.3068172E10,1.3769068E11,6.4128745E10,1.7380426E11,2.4617553E11,3.243098E11,2.0080204E11,3.99077E11,3.3670765E11,5.00241E11,1.2338269E12,0E0,0E0,5.066094E11,1.2508681E12,1.3380695E11,5.88207E11,3.9407374E11,1.2754024E12,2.6048568E11,7.8013635E11,8.528467E11,1.5603087E12,0E0,0E0,0E0,0E0,0E0,0E0,0E0,0E0,0E0,0E0,0E0,0E0,0E0,0E0,0E0,0E0,0E0,0E0,0E0,0E0,0E0,0E0,0E0,0E0,0E0,0E0,0E0,0E0,0E0,0E0,0E0,0E0,0E0,0E0,0E0,0E0,0E0,0E0,0E0,0E0,0E0,0E0,0E0,0E0,0E0,0E0,0E0,0E0,0E0,0E0,0E0,0E0,0E0,0E0,0E0,0E0],"parents":[2147483647,0,0,1,1,2,2,3,3,4,4,5,5,6,6,7,7,8,8,9,9,10,10,11,11,12,12,13,13,14,14,15,15,16,16,17,17,18,18,19,19,20,20,21,21,22,22,23,23,24,24,25,25,26,26,27,27,28,28,30,30,31,31,32,32,33,33,34,34,35,35,36,36,37,37,38,38,39,39,40,40,41,41,42,42,43,43,44,44,45,45,46,46,47,47,48,48,51,51,52,52,53,53,54,54,55,55,56,56,57,57,58,58,59,59,60,60],"right_children":[2,4,6,8,10,12,14,16,18,20,22,24,26,28,30,32,34,36,38,40,42,44,46,48,50,52,54,56,58,-1,60,62,64,66,68,70,72,74,76,78,80,82,84,86,88,90,92,94,96,-1,-1,98,100,102,104,106,108,110,112,114,116,-1,-1,-1,-1,-1,-1,-1,-1,-1,-1,-1,-1,-1,-1,-1,-1,-1,-1,-1,-1,-1,-1,-1,-1,-1,-1,-1,-1,-1,-1,-1,-1,-1,-1,-1,-1,-1,-1,-1,-1,-1,-1,-1,-1,-1,-1,-1,-1,-1,-1,-1,-1,-1,-1,-1,-1],"split_conditions":[3.746147E6,1.3259879E6,7.8111005E6,5.885583E5,2.6995668E6,1.520631E6,1.855249E6,2.2896764E5,2.618729E5,4.3320853E5,6.2046494E5,3.429434E6,3.9139E-1,3.286197E-1,1.3174159E6,5.379729E4,1.0112154E5,1.1383385E6,5.334307E5,2.0734781E6,3.377904E-1,5.334307E5,1.1007076E6,5.735446E6,3.7918964E-1,3.8825074E-1,2.1457045E6,1.4259822E6,3.3960062E-1,-1.0830212E5,3.8825074E-1,2.2760508E4,1.1238484E4,3.28774E5,2.1494645E5,1.4294295E5,3.8825074E-1,1.9433273E5,3.8446328E5,3.0923823E-1,1.00765156E6,3.0829506E5,9.282311E5,4.5434556E5,3.3045748E-1,6.588871E5,3.286197E-1,7.438076E5,3.6062557E-1,1.5573498E5,7.206864E4,5.257109E6,1.6630175E6,5.475194E6,1.3903712E6,8.24682E6,1.6013189E6,1.3374551E6,1.2526769E6,2.3699852E6,2.1457045E6,-5.3965674E3,-4.7255884E3,-4.2040693E3,-4.716082E3,-3.077725E3,-1.0694618E3,-4.6355996E3,-1.2193993E3,3.1224573E3,2.9505053E1,9.400531E3,-7.7826484E3,9.129541E2,-4.6579673E3,1.2996963E4,-9.515406E3,-1.0769877E4,8.574246E3,1.7179545E4,3.0046123E4,1.8593123E4,-3.034266E3,7.415163E3,-2.2364092E4,6.1225223E4,-7.1848016E2,1.5410434E4,3.1627004E4,9.051263E3,2.955447E4,1.7036607E4,-3.8318706E3,4.0396543E4,2.5775312E4,4.011068E4,7.344106E4,2.596677E3,2.0429658E4,-3.2339846E3,7.254547E4,-5.421165E4,-1.3974138E5,1.2971032E5,-1.3835563E4,1.18548586E5,6.061754E4,-1.0735352E5,3.1854473E4,6.7638664E4,1.78083E5,1.1098201E5,6.963558E4,6.194373E4,3.3768855E4,-1.0756273E5,3.0704035E4],"split_indices":[0,0,0,0,0,3,3,0,3,3,3,2,1,1,2,0,3,0,2,0,1,2,2,0,1,1,3,3,1,0,1,2,3,0,2,3,1,2,3,1,2,2,3,2,1,2,1,3,1,0,0,0,2,0,2,0,3,3,3,3,3,0,0,0,0,0,0,0,0,0,0,0,0,0,0,0,0,0,0,0,0,0,0,0,0,0,0,0,0,0,0,0,0,0,0,0,0,0,0,0,0,0,0,0,0,0,0,0,0,0,0,0,0,0,0,0,0],"split_type":[0,0,0,0,0,0,0,0,0,0,0,0,0,0,0,0,0,0,0,0,0,0,0,0,0,0,0,0,0,0,0,0,0,0,0,0,0,0,0,0,0,0,0,0,0,0,0,0,0,0,0,0,0,0,0,0,0,0,0,0,0,0,0,0,0,0,0,0,0,0,0,0,0,0,0,0,0,0,0,0,0,0,0,0,0,0,0,0,0,0,0,0,0,0,0,0,0,0,0,0,0,0,0,0,0,0,0,0,0,0,0,0,0,0,0,0,0],"sum_hessian":[4E4,3.6877E4,3.123E3,3.3742E4,3.135E3,2.339E3,7.84E2,3.1554E4,2.188E3,2.04E3,1.095E3,1.542E3,7.97E2,3.05E2,4.79E2,2.8899E4,2.655E3,1.478E3,7.1E2,9.63E2,1.077E3,3.83E2,7.12E2,1.522E3,2E1,7.68E2,2.9E1,8.8E1,2.17E2,4E0,4.75E2,4.845E3,2.4054E4,1.666E3,9.89E2,1.274E3,2.04E2,6.51E2,5.9E1,7.07E2,2.56E2,3.83E2,6.94E2,5.7E1,3.26E2,3.65E2,3.47E2,1.065E3,4.57E2,1.6E1,4E0,6.88E2,8E1,1E1,1.9E1,6.6E1,2.2E1,2.3E1,1.94E2,4.28E2,4.7E1,2.748E3,2.097E3,5.546E3,1.8508E4,8E2,8.66E2,8.18E2,1.71E2,4.58E2,8.16E2,1.84E2,2E1,1.54E2,4.97E2,4.5E1,1.4E1,3.4E1,6.73E2,2.12E2,4.4E1,3.6E1,3.47E2,6.69E2,2.5E1,8E0,4.9E1,1.04E2,2.22E2,2.28E2,1.37E2,9.5E1,2.52E2,2.97E2,7.68E2,3.04E2,1.53E2,2.04E2,4.84E2,3.3E1,4.7E1,7E0,3E0,2E0,1.7E1,1.5E1,5.1E1,1.1E1,1.1E1,4E0,1.9E1,7E1,1.24E2,1.54E2,2.74E2,8E0,3.9E1],"tree_param":{"num_deleted":"0","num_feature":"4","num_nodes":"117","size_leaf_vector":"1"}},{"base_weights":[2.3558267E2,-6.449378E3,9.419479E4,-9.653157E3,2.6771438E4,1.23749734E5,7.313762E4,-1.05003125E4,2.6983345E3,1.7471666E4,3.8298594E4,1.0801585E5,1.872002E5,4.7377387E4,1.10944984E5,-1.1040207E4,-6.966353E3,1.0255798E4,-2.4660698E3,2.0033344E4,-1.9279781E5,3.4511316E4,1.3131192E5,1.9537438E5,1.0387569E5,9.889422E4,2.128931E5,4.551309E4,1.8173653E5,1.2959923E5,3.9041066E4,-1.0798578E4,-1.2319323E4,-6.7620933E3,-2.4608842E4,3.8825725E3,1.8534234E4,-1.1288811E3,-2.1810031E4,3.4318316E4,7.6796157E3,1.7016338E4,-2.2058577E5,2.4720104E4,5.2787094E4,1.4943881E5,-1.9514295E4,1.0986104E5,2.9957628E5,8.466267E4,1.2284429E5,1.9003525E5,-6.46083E4,1.9440886E5,1.3109623E5,5.1629812E4,-8.747947E4,-2.8248803E4,1.4193352E5,-1.3337345E5,8.508496E4,-3.2648564E3,-1.603487E3,-3.79851E3,-2.8380522E3,-2.562584E3,-1.5159805E3,-1.1613998E3,-8.243751E3,3.2115735E3,-7.6055273E2,5.757012E2,7.806784E3,-1.140221E3,5.3275576E3,8.561864E3,-1.0223007E4,2.4488445E3,1.9939908E4,1.1060754E4,-8.277595E3,-2.6867979E4,-8.527467E4,8.0947827E3,-1.5332838E4,2.2370846E4,1.7917552E3,3.1103432E4,7.57058E4,8.4347345E2,-1.1088479E4,5.4341316E4,4.6912773E3,1.3118575E4,9.923223E4,2.1063627E4,7.310325E4,4.3417613E4,1.0472782E4,8.72451E4,1.943357E4,-1.3318201E3,-3.5494914E4,7.304571E4,4.1251516E4,1.8312725E4,8.506839E2,-5.4946535E4,6.641314E3,3.2423668E4,-7.062041E4,6.2632098E4,2.7756252E4,-5.956517E4,-4.378541E3,2.152672E5,1.9694602E4],"categories":[],"categories_nodes":[],"categories_segments":[],"categories_sizes":[],"default_left":[0,0,0,0,0,0,0,0,0,0,0,0,0,0,0,0,0,0,0,0,0,0,0,0,0,0,0,0,0,0,0,0,0,0,0,0,0,0,0,0,0,0,0,0,0,0,0,0,0,0,0,0,0,0,0,0,0,0,0,0,0,0,0,0,0,0,0,0,0,0,0,0,0,0,0,0,0,0,0,0,0,0,0,0,0,0,0,0,0,0,0,0,0,0,0,0,0,0,0,0,0,0,0,0,0,0,0,0,0,0,0,0,0,0,0,0,0],"id":8,"left_children":[1,3,5,7,9,11,13,15,17,19,21,23,25,27,29,31,33,35,37,39,41,43,45,47,49,51,53,55,-1,57,59,61,63,65,67,69,71,73,75,77,79,-1,81,83,85,87,89,91,93,95,97,99,101,103,-1,105,107,109,111,113,115,-1,-1,-1,-1,-1,-1,-1,-1,-1,-1,-1,-1,-1,-1,-1,-1,-1,-1,-1,-1,-1,-1,-1,-1,-1,-1,-1,-1,-1,-1,-1,-1,-1,-1,-1,-1,-1,-1,-1,-1,-1,-1,-1,-1,-1,-1,-1,-1,-1,-1,-1,-1,-1,-1,-1,-1],"loss_changes":[2.5125779E13,3.974967E12,1.6445174E12,3.5643038E11,3.5148268E11,1.0819291E12,1.5082245E12,6.073929E10,8.538346E10,9.841917E11,5.1189173E11,3.005135E11,4.7355265E11,9.364355E11,8.38627E11,8.412463E9,1.5066235E10,4.677921E10,3.3601864E10,3.172107E11,1.650515E11,2.510034E11,1.5875473E11,3.146036E11,2.9901298E11,7.7226895E11,6.109371E11,7.5617075E11,0E0,9.755343E11,1.05130944E12,1.0634396E10,4.1736602E9,1.2670124E10,2.7507446E9,2.2051592E10,4.797663E10,6.148269E10,5.2852707E10,7.007249E11,9.955747E11,0E0,1.4137301E11,1.592186E11,5.0024363E11,2.1401646E11,2.8306035E9,1.5163395E11,1.2122784E11,9.594806E11,8.126962E11,3.977397E11,6.087431E10,4.0496687E11,0E0,4.0583063E11,4.340501E11,1.0703452E12,1.5098572E12,2.1386772E11,1.231357E12,0E0,0E0,0E0,0E0,0E0,0E0,0E0,0E0,0E0,0E0,0E0,0E0,0E0,0E0,0E0,0E0,0E0,0E0,0E0,0E0,0E0,0E0,0E0,0E0,0E0,0E0,0E0,0E0,0E0,0E0,0E0,0E0,0E0,0E0,0E0,0E0,0E0,0E0,0E0,0E0,0E0,0E0,0E0,0E0,0E0,0E0,0E0,0E0,0E0,0E0,0E0,0E0,0E0,0E0,0E0,0E0],"parents":[2147483647,0,0,1,1,2,2,3,3,4,4,5,5,6,6,7,7,8,8,9,9,10,10,11,11,12,12,13,13,14,14,15,15,16,16,17,17,18,18,19,19,20,20,21,21,22,22,23,23,24,24,25,25,26,26,27,27,29,29,30,30,31,31,32,32,33,33,34,34,35,35,36,36,37,37,38,38,39,39,40,40,42,42,43,43,44,44,45,45,46,46,47,47,48,48,49,49,50,50,51,51,52,52,53,53,55,55,56,56,57,57,58,58,59,59,60,60],"right_children":[2,4,6,8,10,12,14,16,18,20,22,24,26,28,30,32,34,36,38,40,42,44,46,48,50,52,54,56,-1,58,60,62,64,66,68,70,72,74,76,78,80,-1,82,84,86,88,90,92,94,96,98,100,102,104,-1,106,108,110,112,114,116,-1,-1,-1,-1,-1,-1,-1,-1,-1,-1,-1,-1,-1,-1,-1,-1,-1,-1,-1,-1,-1,-1,-1,-1,-1,-1,-1,-1,-1,-1,-1,-1,-1,-1,-1,-1,-1,-1,-1,-1,-1,-1,-1,-1,-1,-1,-1,-1,-1,-1,-1,-1,-1,-1,-1,-1],"split_conditions":[4.319486E6,1.4854175E6,1.3374551E6,6.675936E5,3.584648E-1,7.4471015E6,7.8111005E6,4.675648E4,2.0965316E5,1.8461835E6,1.7442202E6,8.151403E5,7.779527E5,3.8055092E6,3.1610462E6,2.7241752E4,2.4779952E5,9.5113044E5,6.2456025E5,3.286197E-1,6.7873994E5,2.957043E6,1.2526769E6,3.5045433E-1,5.475194E6,5.9271606E5,9.494634E6,3.9139E-1,1.8173653E5,1.4638066E6,3.2088462E-1,3.0923823E-1,1.49465E5,3.115041E5,3.110274E-1,1.4294295E5,3.3E-1,5.0922247E5,3.3927166E-1,2.8194788E6,6.2046494E5,1.7016338E4,4.1374498E6,1.0235337E6,1.3903712E6,1.0656891E6,3.802161E-1,3.377904E-1,5.9271606E5,1.2526769E6,1.1147665E6,1.7442202E6,3.5084015E-1,8.24682E6,1.3109623E5,2.3699852E6,2.1457045E6,2.3699852E6,2.6483892E6,3.429434E6,3.2988083E-1,-3.2648564E3,-1.603487E3,-3.79851E3,-2.8380522E3,-2.562584E3,-1.5159805E3,-1.1613998E3,-8.243751E3,3.2115735E3,-7.6055273E2,5.757012E2,7.806784E3,-1.140221E3,5.3275576E3,8.561864E3,-1.0223007E4,2.4488445E3,1.9939908E4,1.1060754E4,-8.277595E3,-2.6867979E4,-8.527467E4,8.0947827E3,-1.5332838E4,2.2370846E4,1.7917552E3,3.1103432E4,7.57058E4,8.4347345E2,-1.1088479E4,5.4341316E4,4.6912773E3,1.3118575E4,9.923223E4,2.1063627E4,7.310325E4,4.3417613E4,1.0472782E4,8.72451E4,1.943357E4,-1.3318201E3,-3.5494914E4,7.304571E4,4.1251516E4,1.8312725E4,8.506839E2,-5.4946535E4,6.641314E3,3.2423668E4,-7.062041E4,6.2632098E4,2.7756252E4,-5.956517E4,-4.378541E3,2.152672E5,1.9694602E4],"split_indices":[0,0,3,0,1,0,0,2,3,2,2,2,3,2,3,3,3,0,2,1,3,0,3,1,0,3,0,1,0,2,1,1,0,0,1,3,1,2,1,0,3,0,0,3,2,3,1,1,3,3,3,2,1,0,0,3,3,3,2,2,1,0,0,0,0,0,0,0,0,0,0,0,0,0,0,0,0,0,0,0,0,0,0,0,0,0,0,0,0,0,0,0,0,0,0,0,0,0,0,0,0,0,0,0,0,0,0,0,0,0,0,0,0,0,0,0,0],"split_type":[0,0,0,0,0,0,0,0,0,0,0,0,0,0,0,0,0,0,0,0,0,0,0,0,0,0,0,0,0,0,0,0,0,0,0,0,0,0,0,0,0,0,0,0,0,0,0,0,0,0,0,0,0,0,0,0,0,0,0,0,0,0,0,0,0,0,0,0,0,0,0,0,0,0,0,0,0,0,0,0,0,0,0,0,0,0,0,0,0,0,0,0,0,0,0,0,0,0,0,0,0,0,0,0,0,0,0,0,0,0,0,0,0,0,0,0,0],"sum_hessian":[4E4,3.7344E4,2.656E3,3.406E4,3.284E3,1.103E3,1.553E3,3.1874E4,2.186E3,1.819E3,1.465E3,8.86E2,2.17E2,9.25E2,6.28E2,2.7648E4,4.226E3,8.87E2,1.299E3,1.798E3,2.1E1,1.409E3,5.6E1,3.8E1,8.48E2,5E1,1.67E2,9.23E2,2E0,4.98E2,1.3E2,2.3263E4,4.385E3,4.179E3,4.7E1,5.02E2,3.85E2,1.216E3,8.3E1,8.33E2,9.65E2,2E0,1.9E1,9.19E2,4.9E2,5E1,6E0,2.2E1,1.6E1,4.24E2,4.24E2,3.2E1,1.8E1,1.56E2,1.1E1,8.83E2,4E1,3.6E1,4.62E2,2.7E1,1.03E2,2.2908E4,3.55E2,3.913E3,4.72E2,2.045E3,2.134E3,6E0,4.1E1,2.43E2,2.59E2,1.2E2,2.65E2,1.066E3,1.5E2,1.6E1,6.7E1,4.6E2,3.73E2,5.28E2,4.37E2,7E0,1.2E1,8.93E2,2.6E1,3.34E2,1.56E2,3.6E1,1.4E1,3E0,3E0,1.2E1,1E1,2E0,1.4E1,3.9E2,3.4E1,3.39E2,8.5E1,1.7E1,1.5E1,9E0,9E0,8.2E1,7.4E1,7.4E2,1.43E2,2.1E1,1.9E1,2.2E1,1.4E1,1.95E2,2.67E2,1.7E1,1E1,2E0,1.01E2],"tree_param":{"num_deleted":"0","num_feature":"4","num_nodes":"117","size_leaf_vector":"1"}},{"base_weights":[1.9096667E2,-4.6840454E3,6.46159E4,-6.709266E3,1.8634148E4,5.807642E4,1.16311375E5,-7.4873594E3,6.17172E2,2.1752516E4,-2.0092262E4,8.022239E4,4.1286195E4,2.049396E4,1.9090069E5,-7.7857134E3,-5.630177E3,5.1803506E3,-2.083468E3,1.3829208E4,3.2211645E4,-2.9154648E4,5.2483754E4,7.018032E4,2.0121847E5,2.7149451E4,8.542068E4,1.14411484E5,6.976316E3,2.3724425E5,4.9687496E4,-6.710515E3,-8.030386E3,-2.9037754E3,-7.1867705E3,2.632287E3,2.6749354E4,7.3798354E3,-4.0926418E3,2.9216287E4,8.132646E3,5.7332625E4,2.43396E4,1.706784E4,-6.5119312E4,7.342562E4,-4.9009207E4,1.4583716E5,3.086309E5,3.9909418E4,-3.2830977E4,1.2643276E5,4.4191E3,7.8645625E4,-9.5532984E4,1.8846917E5,4.1341972E5,8.19827E4,-9.055021E4,-2.6588816E3,-1.915008E3,-2.4020605E3,-5.245892E3,-1.2246384E3,1.2193447E3,-3.2541882E2,-2.4568254E3,2.6068188E3,-5.1806323E2,6.2429346E3,2.4877807E4,1.227455E3,1.5462816E4,-1.039417E3,-1.2466297E4,2.0616711E3,9.910421E3,-1.8385105E3,4.865316E3,1.4002165E4,5.8388547E4,1.4211302E4,2.849545E3,-3.179662E4,1.5527597E4,-3.0593363E4,-2.3120784E3,1.7989047E4,3.201599E4,-1.29880414E5,2.4389918E4,6.990031E3,7.537778E4,-3.7337703E3,1.09503445E5,1.3168984E4,-2.832895E4,1.712841E4,-2.6827932E4,8.663719E4,2.2405059E4,-2.5097246E4,9.956617E4,6.69918E4,-1.1649104E4,-9.468242E4,2.3815824E4,8.673406E4,2.5859533E4,5.6615633E4,2.6004589E5,-8.238349E3,4.511669E4],"categories":[],"categories_nodes":[],"categories_segments":[],"categories_sizes":[],"default_left":[0,0,0,0,0,0,0,0,0,0,0,0,0,0,0,0,0,0,0,0,0,0,0,0,0,0,0,0,0,0,0,0,0,0,0,0,0,0,0,0,0,0,0,0,0,0,0,0,0,0,0,0,0,0,0,0,0,0,0,0,0,0,0,0,0,0,0,0,0,0,0,0,0,0,0,0,0,0,0,0,0,0,0,0,0,0,0,0,0,0,0,0,0,0,0,0,0,0,0,0,0,0,0,0,0,0,0,0,0,0,0,0,0],"id":9,"left_children":[1,3,5,7,9,11,13,15,17,19,21,23,25,27,29,31,33,35,37,39,41,43,-1,45,47,49,51,-1,53,55,57,59,61,63,65,67,69,71,73,75,77,79,81,83,85,87,89,91,93,95,97,99,101,103,105,107,109,111,-1,-1,-1,-1,-1,-1,-1,-1,-1,-1,-1,-1,-1,-1,-1,-1,-1,-1,-1,-1,-1,-1,-1,-1,-1,-1,-1,-1,-1,-1,-1,-1,-1,-1,-1,-1,-1,-1,-1,-1,-1,-1,-1,-1,-1,-1,-1,-1,-1,-1,-1,-1,-1,-1,-1],"loss_changes":[1.2563509E13,1.7563094E12,9.445499E11,1.9506384E11,3.5934516E11,9.2627796E11,2.2473786E12,1.709559E10,4.0505823E10,2.2753234E11,3.9748793E11,1.294488E12,8.8614004E11,6.7541146E11,1.146557E12,6.956384E9,1.8164236E10,6.708972E10,3.929292E10,1.3711537E11,2.3294234E11,3.5519758E11,0E0,3.8885655E11,4.4277878E11,8.2788634E11,1.145546E12,0E0,9.993273E11,1.06494794E12,5.3560587E11,3.4262712E9,4.6864794E9,1.2817645E10,1.6675439E10,2.8900907E10,4.1317147E10,5.235935E10,3.993903E10,3.5863134E10,1.3211943E11,4.0359513E11,3.085479E11,4.067655E11,2.531506E11,4.283669E11,1.3859783E12,7.1755996E11,4.9331018E11,4.8139757E11,9.720889E11,1.902466E12,3.4023106E12,1.3682003E12,2.1807932E12,1.0661339E12,2.689038E12,3.18569E11,0E0,0E0,0E0,0E0,0E0,0E0,0E0,0E0,0E0,0E0,0E0,0E0,0E0,0E0,0E0,0E0,0E0,0E0,0E0,0E0,0E0,0E0,0E0,0E0,0E0,0E0,0E0,0E0,0E0,0E0,0E0,0E0,0E0,0E0,0E0,0E0,0E0,0E0,0E0,0E0,0E0,0E0,0E0,0E0,0E0,0E0,0E0,0E0,0E0,0E0,0E0,0E0,0E0,0E0,0E0],"parents":[2147483647,0,0,1,1,2,2,3,3,4,4,5,5,6,6,7,7,8,8,9,9,10,10,11,11,12,12,13,13,14,14,15,15,16,16,17,17,18,18,19,19,20,20,21,21,23,23,24,24,25,25,26,26,28,28,29,29,30,30,31,31,32,32,33,33,34,34,35,35,36,36,37,37,38,38,39,39,40,40,41,41,42,42,43,43,44,44,45,45,46,46,47,47,48,48,49,49,50,50,51,51,52,52,53,53,54,54,55,55,56,56,57,57],"right_children":[2,4,6,8,10,12,14,16,18,20,22,24,26,28,30,32,34,36,38,40,42,44,-1,46,48,50,52,-1,54,56,58,60,62,64,66,68,70,72,74,76,78,80,82,84,86,88,90,92,94,96,98,100,102,104,106,108,110,112,-1,-1,-1,-1,-1,-1,-1,-1,-1,-1,-1,-1,-1,-1,-1,-1,-1,-1,-1,-1,-1,-1,-1,-1,-1,-1,-1,-1,-1,-1,-1,-1,-1,-1,-1,-1,-1,-1,-1,-1,-1,-1,-1,-1,-1,-1,-1,-1,-1,-1,-1,-1,-1,-1,-1],"split_conditions":[4.1374498E6,1.584775E6,3.429434E6,4.7732878E5,1.1901341E6,1.2526769E6,3.49533E-1,3.0164194E-1,1.6755125E5,2.6995668E6,3.9139E-1,7.8111005E6,8.24682E6,7.4471015E6,3.1610462E6,9.199729E3,3.9843746E4,4.1566822E5,3.1964192E-1,3.2189625E5,3.2088462E-1,7.3918894E5,5.2483754E4,3.1180218E6,2.6483892E6,2.3699852E6,2.6483892E6,1.14411484E5,2.6871712E6,9.494634E6,3.9139E-1,4.2773266E4,1.15271234E5,2.2896764E5,3.1989065E-1,1.9433273E5,1.4854175E6,1.4854175E6,6.924679E5,1.6726849E6,3.377904E-1,3.966029E6,6.2046494E5,3.2210035E6,3.584648E-1,6.0166275E6,3.1881455E-1,3.3E-1,8.726767E5,3.9139E-1,3.3960062E-1,8.672401E6,2.6871712E6,3.201829E-1,3.8055092E6,8.24682E6,1.9943556E6,3.7954187E-1,-9.055021E4,-2.6588816E3,-1.915008E3,-2.4020605E3,-5.245892E3,-1.2246384E3,1.2193447E3,-3.2541882E2,-2.4568254E3,2.6068188E3,-5.1806323E2,6.2429346E3,2.4877807E4,1.227455E3,1.5462816E4,-1.039417E3,-1.2466297E4,2.0616711E3,9.910421E3,-1.8385105E3,4.865316E3,1.4002165E4,5.8388547E4,1.4211302E4,2.849545E3,-3.179662E4,1.5527597E4,-3.0593363E4,-2.3120784E3,1.7989047E4,3.201599E4,-1.29880414E5,2.4389918E4,6.990031E3,7.537778E4,-3.7337703E3,1.09503445E5,1.3168984E4,-2.832895E4,1.712841E4,-2.6827932E4,8.663719E4,2.2405059E4,-2.5097246E4,9.956617E4,6.69918E4,-1.1649104E4,-9.468242E4,2.3815824E4,8.673406E4,2.5859533E4,5.6615633E4,2.6004589E5,-8.238349E3,4.511669E4],"split_indices":[0,0,2,0,3,3,1,1,3,0,1,0,0,0,3,3,3,2,1,3,1,2,0,2,2,3,2,0,3,0,1,0,2,0,1,2,0,0,2,0,1,0,3,0,1,0,1,1,3,1,1,0,3,1,2,0,3,1,0,0,0,0,0,0,0,0,0,0,0,0,0,0,0,0,0,0,0,0,0,0,0,0,0,0,0,0,0,0,0,0,0,0,0,0,0,0,0,0,0,0,0,0,0,0,0,0,0,0,0,0,0,0,0],"split_type":[0,0,0,0,0,0,0,0,0,0,0,0,0,0,0,0,0,0,0,0,0,0,0,0,0,0,0,0,0,0,0,0,0,0,0,0,0,0,0,0,0,0,0,0,0,0,0,0,0,0,0,0,0,0,0,0,0,0,0,0,0,0,0,0,0,0,0,0,0,0,0,0,0,0,0,0,0,0,0,0,0,0,0,0,0,0,0,0,0,0,0,0,0,0,0,0,0,0,0,0,0,0,0,0,0,0,0,0,0,0,0,0,0],"sum_hessian":[4E4,3.7187E4,2.813E3,3.4216E4,2.971E3,2.499E3,3.14E2,3.0931E4,3.285E3,2.75E3,2.21E2,1.076E3,1.423E3,1.38E2,1.76E2,2.6647E4,4.284E3,1.221E3,2.064E3,1.566E3,1.184E3,2.12E2,9E0,9.95E2,8.1E1,1.079E3,3.44E2,4E0,1.34E2,1.32E2,4.4E1,4.945E3,2.1702E4,1.558E3,2.726E3,1.093E3,1.28E2,3.61E2,1.703E3,4.22E2,1.144E3,2.81E2,9.03E2,9.3E1,1.19E2,9.69E2,2.6E1,5.5E1,2.6E1,8.9E2,1.89E2,2.28E2,1.16E2,7.9E1,5.5E1,1.05E2,2.7E1,4.1E1,3E0,6.49E2,4.296E3,2.165E4,5.2E1,1.333E3,2.25E2,3.85E2,2.341E3,4.57E2,6.36E2,1.17E2,1.1E1,3.37E2,2.4E1,1.676E3,2.7E1,6.2E1,3.6E2,4.14E2,7.3E2,2.62E2,1.9E1,3.53E2,5.5E2,2E1,7.3E1,7.2E1,4.7E1,6.92E2,2.77E2,6E0,2E1,2.6E1,2.9E1,4E0,2.2E1,8.65E2,2.5E1,7.3E1,1.16E2,5.4E1,1.74E2,9.2E1,2.4E1,3.5E1,4.4E1,2.4E1,3.1E1,5.2E1,5.3E1,1.9E1,8E0,1.6E1,2.5E1],"tree_param":{"num_deleted":"0","num_feature":"4","num_nodes":"113","size_leaf_vector":"1"}},{"base_weights":[1.5604933E2,-3.1806365E3,4.7054195E4,-5.0804385E3,1.05687E4,4.009372E4,7.902598E4,-5.007037E3,-1.6451998E4,1.1924434E4,-1.4062158E4,4.7688023E4,-1.8318531E4,4.84712E3,1.1268741E5,-5.1632134E3,3.2476423E3,-8.538927E3,-2.8699977E4,1.065246E4,5.4302793E4,8.934391E2,-8.5579E4,4.274497E4,1.2767517E5,6.4872375E4,-5.529323E4,1.7570952E5,-1.9580072E5,1.8621647E5,-1.0446976E3,-5.374288E3,-2.9498467E3,1.3934198E4,-5.847883E2,-1.5151677E4,4.1415776E3,-4.9618344E4,-1.8101834E4,9.47687E3,5.0980543E4,-5.1649664E4,1.4679372E5,-1.0986204E4,6.2491168E4,-1.9650982E4,-1.8736334E5,-6.834327E4,4.5404547E4,9.946879E3,3.313035E5,8.36554E3,2.5276375E5,-5.5131113E3,-1.4823455E5,2.995014E5,-1.4948316E5,-3.1206447E5,6.676569E4,4.6748584E5,1.5549238E5,-1.5200723E5,6.606137E4,-2.0969878E3,-1.5789447E3,4.2202066E2,-1.4344578E3,1.276178E3,7.454536E3,4.225251E3,-1.01765485E3,-7.5668535E3,-1.1185212E3,-9.4018164E2,3.0262043E3,-8.620279E3,-1.5917587E4,-6.8031636E3,7.141754E3,3.5456492E3,-4.516342E3,2.4463969E4,-1.5053927E4,-4.6878297E4,8.9599E3,1.6377084E4,7.563232E4,3.687685E3,-1.2027941E4,9.462818E4,7.634569E3,-1.981743E4,-1.6368145E3,-5.9730613E4,-1.6924313E3,-7.6819414E3,-6.808448E4,1.4665843E4,-8.757132E3,1.612494E5,-1.6540658E4,2.6160238E5,5.8300418E4,-9.168117E4,8.962312E3,2.4651467E5,2.5257705E4,-8.499542E3,9.0968516E4,2.7293305E4,-6.642749E4,2.011498E4,1.521884E5,-7.11506E4,-9.679644E3,8.276067E3,-1.958596E5,9.542367E4,-7.998542E4,5.80205E4,2.0844644E5,3.8600168E4,8.8955836E4,-1.0944793E5,-2.6220484E4,7.512903E4,9.504554E3],"categories":[],"categories_nodes":[],"categories_segments":[],"categories_sizes":[],"default_left":[0,0,0,0,0,0,0,0,0,0,0,0,0,0,0,0,0,0,0,0,0,0,0,0,0,0,0,0,0,0,0,0,0,0,0,0,0,0,0,0,0,0,0,0,0,0,0,0,0,0,0,0,0,0,0,0,0,0,0,0,0,0,0,0,0,0,0,0,0,0,0,0,0,0,0,0,0,0,0,0,0,0,0,0,0,0,0,0,0,0,0,0,0,0,0,0,0,0,0,0,0,0,0,0,0,0,0,0,0,0,0,0,0,0,0,0,0,0,0,0,0,0,0,0,0,0,0],"id":10,"left_children":[1,3,5,7,9,11,13,15,17,19,21,23,25,27,29,31,33,35,37,39,41,43,45,47,49,51,53,55,57,59,61,63,65,67,69,71,73,75,77,79,81,83,85,87,89,91,93,95,97,99,101,103,105,107,109,111,113,115,117,119,121,123,125,-1,-1,-1,-1,-1,-1,-1,-1,-1,-1,-1,-1,-1,-1,-1,-1,-1,-1,-1,-1,-1,-1,-1,-1,-1,-1,-1,-1,-1,-1,-1,-1,-1,-1,-1,-1,-1,-1,-1,-1,-1,-1,-1,-1,-1,-1,-1,-1,-1,-1,-1,-1,-1,-1,-1,-1,-1,-1,-1,-1,-1,-1,-1,-1],"loss_changes":[6.259681E12,9.7554314E11,5.881169E11,2.7305443E10,1.5157107E11,9.696971E11,1.183016E12,4.2048094E10,2.0107948E10,2.311017E11,2.535662E11,7.5881356E11,7.7872864E11,5.142597E12,2.7264067E12,1.4933164E10,2.482717E10,1.0879791E10,1.728088E10,1.9740312E11,1.2325369E12,1.4484308E11,2.7144618E11,5.4140915E11,2.6816597E12,8.260229E11,8.0884295E11,3.3055244E12,2.1271953E12,1.6383748E12,1.3168766E12,5.2084736E9,2.2254582E10,1.6798769E10,1.8455929E10,9.684842E9,1.978248E9,4.1527296E8,1.1277482E10,2.3325829E11,3.6895595E11,5.0778925E11,6.368284E11,1.1296869E11,2.9179403E11,1.6766979E10,3.30076E10,2.8565422E11,4.637102E11,2.5017044E12,2.866983E12,4.210698E11,1.6571801E12,8.1877493E11,1.0881351E12,2.8157957E12,2.287484E11,5.574177E12,1.9280478E12,1.04949324E12,6.4280094E11,5.180862E11,5.6253166E11,0E0,0E0,0E0,0E0,0E0,0E0,0E0,0E0,0E0,0E0,0E0,0E0,0E0,0E0,0E0,0E0,0E0,0E0,0E0,0E0,0E0,0E0,0E0,0E0,0E0,0E0,0E0,0E0,0E0,0E0,0E0,0E0,0E0,0E0,0E0,0E0,0E0,0E0,0E0,0E0,0E0,0E0,0E0,0E0,0E0,0E0,0E0,0E0,0E0,0E0,0E0,0E0,0E0,0E0,0E0,0E0,0E0,0E0,0E0,0E0,0E0,0E0,0E0,0E0],"parents":[2147483647,0,0,1,1,2,2,3,3,4,4,5,5,6,6,7,7,8,8,9,9,10,10,11,11,12,12,13,13,14,14,15,15,16,16,17,17,18,18,19,19,20,20,21,21,22,22,23,23,24,24,25,25,26,26,27,27,28,28,29,29,30,30,31,31,32,32,33,33,34,34,35,35,36,36,37,37,38,38,39,39,40,40,41,41,42,42,43,43,44,44,45,45,46,46,47,47,48,48,49,49,50,50,51,51,52,52,53,53,54,54,55,55,56,56,57,57,58,58,59,59,60,60,61,61,62,62],"right_children":[2,4,6,8,10,12,14,16,18,20,22,24,26,28,30,32,34,36,38,40,42,44,46,48,50,52,54,56,58,60,62,64,66,68,70,72,74,76,78,80,82,84,86,88,90,92,94,96,98,100,102,104,106,108,110,112,114,116,118,120,122,124,126,-1,-1,-1,-1,-1,-1,-1,-1,-1,-1,-1,-1,-1,-1,-1,-1,-1,-1,-1,-1,-1,-1,-1,-1,-1,-1,-1,-1,-1,-1,-1,-1,-1,-1,-1,-1,-1,-1,-1,-1,-1,-1,-1,-1,-1,-1,-1,-1,-1,-1,-1,-1,-1,-1,-1,-1,-1,-1,-1,-1,-1,-1,-1,-1],"split_conditions":[4.319486E6,9.5113044E5,8.672401E6,2.7627834E5,1.2526769E6,2.3699852E6,3.377904E-1,7.0918375E5,3.0829506E5,1.1147665E6,1.6630175E6,2.1457045E6,1.5475089E6,3.1881455E-1,2.6871712E6,2.5946561E5,1.6353189E5,3.691131E-1,3.0583088E5,1.6630175E6,3.3960062E-1,4.1374498E6,4.1374498E6,3.0074263E-1,7.0830795E6,8.24682E6,7.8111005E6,3.1610462E6,2.3699852E6,1.5475089E6,3.1610462E6,4.0966996E4,7.336305E4,3.377904E-1,1.19681836E5,8.445765E5,1.6353189E5,3.6016975E5,3.9004067E-1,8.726767E5,9.685715E5,8.553359E5,3.966029E6,7.799512E5,1.3374551E6,3.1018475E-1,3.5045433E-1,1.520631E6,8.24682E6,8.977256E5,7.8111005E6,3.1018475E-1,2.6871712E6,3.429434E6,2.6483892E6,1.520631E6,3.429434E6,1.855249E6,1.6630175E6,1.7221376E6,2.3699852E6,3.4026718E-1,1.6630175E6,-2.0969878E3,-1.5789447E3,4.2202066E2,-1.4344578E3,1.276178E3,7.454536E3,4.225251E3,-1.01765485E3,-7.5668535E3,-1.1185212E3,-9.4018164E2,3.0262043E3,-8.620279E3,-1.5917587E4,-6.8031636E3,7.141754E3,3.5456492E3,-4.516342E3,2.4463969E4,-1.5053927E4,-4.6878297E4,8.9599E3,1.6377084E4,7.563232E4,3.687685E3,-1.2027941E4,9.462818E4,7.634569E3,-1.981743E4,-1.6368145E3,-5.9730613E4,-1.6924313E3,-7.6819414E3,-6.808448E4,1.4665843E4,-8.757132E3,1.612494E5,-1.6540658E4,2.6160238E5,5.8300418E4,-9.168117E4,8.962312E3,2.4651467E5,2.5257705E4,-8.499542E3,9.0968516E4,2.7293305E4,-6.642749E4,2.011498E4,1.521884E5,-7.11506E4,-9.679644E3,8.276067E3,-1.958596E5,9.542367E4,-7.998542E4,5.80205E4,2.0844644E5,3.8600168E4,8.8955836E4,-1.0944793E5,-2.6220484E4,7.512903E4,9.504554E3],"split_indices":[0,0,0,3,3,3,1,0,2,3,2,3,2,1,3,0,2,1,3,2,1,0,0,1,0,0,0,3,3,2,3,0,3,1,3,0,2,2,1,3,3,2,0,2,3,1,1,3,0,2,0,1,3,2,2,3,2,3,2,3,3,1,2,0,0,0,0,0,0,0,0,0,0,0,0,0,0,0,0,0,0,0,0,0,0,0,0,0,0,0,0,0,0,0,0,0,0,0,0,0,0,0,0,0,0,0,0,0,0,0,0,0,0,0,0,0,0,0,0,0,0,0,0,0,0,0,0],"split_type":[0,0,0,0,0,0,0,0,0,0,0,0,0,0,0,0,0,0,0,0,0,0,0,0,0,0,0,0,0,0,0,0,0,0,0,0,0,0,0,0,0,0,0,0,0,0,0,0,0,0,0,0,0,0,0,0,0,0,0,0,0,0,0,0,0,0,0,0,0,0,0,0,0,0,0,0,0,0,0,0,0,0,0,0,0,0,0,0,0,0,0,0,0,0,0,0,0,0,0,0,0,0,0,0,0,0,0,0,0,0,0,0,0,0,0,0,0,0,0,0,0,0,0,0,0,0,0],"sum_hessian":[4E4,3.7344E4,2.656E3,3.2811E4,4.533E3,2.183E3,4.73E2,3.2602E4,2.09E2,4.297E3,2.36E2,1.932E3,2.51E2,1.48E2,3.25E2,3.1997E4,6.05E2,1.28E2,8.1E1,4.173E3,1.24E2,1.96E2,4E1,1.821E3,1.11E2,7.7E1,1.74E2,8E1,6.8E1,1.97E2,1.28E2,2.921E4,2.787E3,1.59E2,4.46E2,8.4E1,4.4E1,2.6E1,5.5E1,4.056E3,1.17E2,5.8E1,6.6E1,1.65E2,3.1E1,2.5E1,1.5E1,4.2E1,1.779E3,7.1E1,4E1,6E1,1.7E1,1.14E2,6E1,5.8E1,2.2E1,4.7E1,2.1E1,1.8E1,1.79E2,3.9E1,8.9E1,1.876E3,2.7334E4,8.25E2,1.962E3,8.5E1,7.4E1,7.1E1,3.75E2,4.4E1,4E1,2E1,2.4E1,5E0,2.1E1,5E1,5E0,3.703E3,3.53E2,9E1,2.7E1,2.5E1,3.3E1,3.6E1,3E1,9.2E1,7.3E1,3E0,2.8E1,5E0,2E1,1.4E1,1E0,3.4E1,8E0,1.7E3,7.9E1,7E0,6.4E1,7E0,3.3E1,3E0,5.7E1,3E0,1.4E1,1.07E2,7E0,1.4E1,4.6E1,2.8E1,3E1,1.2E1,1E1,2.4E1,2.3E1,1.2E1,9E0,9E0,9E0,1.52E2,2.7E1,8E0,3.1E1,1.3E1,7.6E1],"tree_param":{"num_deleted":"0","num_feature":"4","num_nodes":"127","size_leaf_vector":"1"}},{"base_weights":[1.3272227E2,-1.9505327E3,3.9060406E4,-3.275561E3,1.2814813E4,5.362013E4,2.2874307E4,-3.2325674E3,-8.190811E4,1.3431979E4,-6.0747387E4,-1.1023455E4,6.4677547E4,-1.2493755E3,5.703754E4,-3.6077747E3,1.9971027E3,-1.2374576E5,-2.1672312E4,1.1706615E4,1.2843928E5,4.0724324E4,-1.1333466E5,5.9302246E4,1.9033864E5,7.961687E3,-1.2592095E5,1.7762931E5,2.5283104E4,-3.5598723E3,-1.5506229E4,4.4799375E3,-7.5417437E3,1.5354306E4,-4.390696E4,-1.815247E4,1.2599893E4,1.5793513E4,-4.5567055E4,5.1693152E4,3.0016662E5,1.2456251E5,-1.9430584E4,-1.559279E4,-2.307897E5,3.3959902E4,7.6717664E4,-3.7660332E4,2.8824822E5,4.370319E4,-4.1886027E4,-7.0923675E5,2.3843031E4,3.0796647E5,-1.1995469E5,-3.439977E4,8.117261E4,-1.0823425E3,1.9470745E3,1.8824325E3,-5.7873115E3,1.6785167E3,-4.0705918E3,1.2563505E4,-4.896761E3,4.3737607E3,2.9163016E4,-2.4306033E4,1.2438452E4,-1.6518438E4,3.4595332E4,1.0342285E5,6.5419126E3,6.541655E3,7.403419E4,-4.663936E4,4.2218258E4,4.3843453E4,-5.6122027E4,-1.7730396E4,-8.542073E4,1.5124935E4,-5.935401E4,4.1155414E4,1.5390089E4,-5.483928E4,1.73274E4,9.4776586E4,1.7118676E4,2.6810865E4,-1.9852682E4,-1.6585662E4,8.396693E4,-2.4567219E5,-7.6045055E4,2.011954E5,-1.9858225E4,4.9745832E4,2.0122161E5,-6.0218562E4,-7.122055E3,1.8557449E3,-8.7520914E4,-7.5688584E3,5.5594445E4],"categories":[],"categories_nodes":[],"categories_segments":[],"categories_sizes":[],"default_left":[0,0,0,0,0,0,0,0,0,0,0,0,0,0,0,0,0,0,0,0,0,0,0,0,0,0,0,0,0,0,0,0,0,0,0,0,0,0,0,0,0,0,0,0,0,0,0,0,0,0,0,0,0,0,0,0,0,0,0,0,0,0,0,0,0,0,0,0,0,0,0,0,0,0,0,0,0,0,0,0,0,0,0,0,0,0,0,0,0,0,0,0,0,0,0,0,0,0,0,0,0,0,0,0,0],"id":11,"left_children":[1,3,5,7,9,11,13,15,17,19,-1,21,23,25,27,29,31,33,35,37,39,41,43,45,47,49,51,53,55,57,59,61,63,-1,-1,-1,-1,65,67,69,71,73,75,77,79,81,83,85,87,89,91,93,95,97,99,101,103,-1,-1,-1,-1,-1,-1,-1,-1,-1,-1,-1,-1,-1,-1,-1,-1,-1,-1,-1,-1,-1,-1,-1,-1,-1,-1,-1,-1,-1,-1,-1,-1,-1,-1,-1,-1,-1,-1,-1,-1,-1,-1,-1,-1,-1,-1,-1,-1],"loss_changes":[3.244009E12,7.4290613E11,4.7764498E11,1.1753213E11,4.1823417E11,7.648248E11,7.945451E11,6.8343136E10,4.52005E10,6.1739775E11,0E0,8.358327E11,6.054129E11,6.5097295E11,1.523409E12,1.8465751E10,5.5263425E10,5.0998215E10,2.4796152E10,7.202558E11,5.907362E11,5.3196453E11,6.048559E11,3.8445646E11,8.36817E11,9.425323E11,3.4239388E12,3.256201E12,1.0601921E12,1.5616082E10,1.083785E10,3.732969E10,2.098463E11,0E0,0E0,0E0,0E0,2.8232548E11,6.358721E11,2.3049283E11,1.6619772E11,5.4720463E11,1.3726683E12,8.59386E11,2.0545772E11,1.3794649E12,7.906203E11,1.7674312E11,1.4831478E11,1.5513855E12,9.683459E11,1.9228184E11,1.907969E12,2.8796644E12,1.9729665E11,1.6102046E12,1.8219519E12,0E0,0E0,0E0,0E0,0E0,0E0,0E0,0E0,0E0,0E0,0E0,0E0,0E0,0E0,0E0,0E0,0E0,0E0,0E0,0E0,0E0,0E0,0E0,0E0,0E0,0E0,0E0,0E0,0E0,0E0,0E0,0E0,0E0,0E0,0E0,0E0,0E0,0E0,0E0,0E0,0E0,0E0,0E0,0E0,0E0,0E0,0E0,0E0],"parents":[2147483647,0,0,1,1,2,2,3,3,4,4,5,5,6,6,7,7,8,8,9,9,11,11,12,12,13,13,14,14,15,15,16,16,17,17,18,18,19,19,20,20,21,21,22,22,23,23,24,24,25,25,26,26,27,27,28,28,29,29,30,30,31,31,32,32,37,37,38,38,39,39,40,40,41,41,42,42,43,43,44,44,45,45,46,46,47,47,48,48,49,49,50,50,51,51,52,52,53,53,54,54,55,55,56,56],"right_children":[2,4,6,8,10,12,14,16,18,20,-1,22,24,26,28,30,32,34,36,38,40,42,44,46,48,50,52,54,56,58,60,62,64,-1,-1,-1,-1,66,68,70,72,74,76,78,80,82,84,86,88,90,92,94,96,98,100,102,104,-1,-1,-1,-1,-1,-1,-1,-1,-1,-1,-1,-1,-1,-1,-1,-1,-1,-1,-1,-1,-1,-1,-1,-1,-1,-1,-1,-1,-1,-1,-1,-1,-1,-1,-1,-1,-1,-1,-1,-1,-1,-1,-1,-1,-1,-1,-1,-1],"split_conditions":[5.257109E6,1.9464819E6,1.7221376E6,8.553359E5,2.1457045E6,3.1881455E-1,2.8815802E6,8.445765E5,3.8446328E5,1.9943556E6,-6.0747387E4,1.3374551E6,9.494634E6,9.494634E6,3.201829E-1,2.618729E5,4.586165E5,3.3960062E-1,3.201829E-1,1.520631E6,5.064162E6,1.6630175E6,2.3123292E6,1.8461835E6,6.7873994E5,2.0294946E6,3.2988083E-1,9.494634E6,3.429434E6,3.229883E5,1.3910966E5,3.9139E-1,3.193322E-1,1.5354306E4,-4.390696E4,-1.815247E4,1.2599893E4,2.3123292E6,1.7442202E6,4.521108E6,1.7442202E6,8.279753E5,7.8111005E6,1.6013189E6,3.0011645E-1,1.7442202E6,6.0166275E6,3.691131E-1,1.6013189E6,3.6952534E-1,8.672401E6,3.2049054E-1,1.5475089E6,3.105124E-1,3.8055092E6,8.672401E6,9.069028E6,-1.0823425E3,1.9470745E3,1.8824325E3,-5.7873115E3,1.6785167E3,-4.0705918E3,1.2563505E4,-4.896761E3,4.3737607E3,2.9163016E4,-2.4306033E4,1.2438452E4,-1.6518438E4,3.4595332E4,1.0342285E5,6.5419126E3,6.541655E3,7.403419E4,-4.663936E4,4.2218258E4,4.3843453E4,-5.6122027E4,-1.7730396E4,-8.542073E4,1.5124935E4,-5.935401E4,4.1155414E4,1.5390089E4,-5.483928E4,1.73274E4,9.4776586E4,1.7118676E4,2.6810865E4,-1.9852682E4,-1.6585662E4,8.396693E4,-2.4567219E5,-7.6045055E4,2.011954E5,-1.9858225E4,4.9745832E4,2.0122161E5,-6.0218562E4,-7.122055E3,1.8557449E3,-8.7520914E4,-7.5688584E3,5.5594445E4],"split_indices":[0,0,3,2,3,1,2,0,3,3,0,3,0,0,1,3,3,1,1,3,0,2,2,2,3,2,1,0,2,2,2,1,1,0,0,0,0,2,2,0,2,3,0,3,1,2,0,1,3,1,0,1,2,1,2,0,0,0,0,0,0,0,0,0,0,0,0,0,0,0,0,0,0,0,0,0,0,0,0,0,0,0,0,0,0,0,0,0,0,0,0,0,0,0,0,0,0,0,0,0,0,0,0,0,0],"split_type":[0,0,0,0,0,0,0,0,0,0,0,0,0,0,0,0,0,0,0,0,0,0,0,0,0,0,0,0,0,0,0,0,0,0,0,0,0,0,0,0,0,0,0,0,0,0,0,0,0,0,0,0,0,0,0,0,0,0,0,0,0,0,0,0,0,0,0,0,0,0,0,0,0,0,0,0,0,0,0,0,0,0,0,0,0,0,0,0,0,0,0,0,0,0,0,0,0,0,0,0,0,0,0,0,0],"sum_hessian":[4E4,3.7969E4,2.031E3,3.4843E4,3.126E3,1.068E3,9.63E2,3.4825E4,1.8E1,3.118E3,8E0,1.56E2,9.12E2,5.65E2,3.98E2,3.2494E4,2.331E3,1E1,8E0,3.073E3,4.5E1,1.04E2,5.2E1,8.76E2,3.6E1,5.27E2,3.8E1,8.2E1,3.16E2,3.2365E4,1.29E2,1.85E3,4.81E2,1E0,9E0,5E0,3E0,2.869E3,2.04E2,3.2E1,1.3E1,4.3E1,6.1E1,2.9E1,2.3E1,3.58E2,5.18E2,1.1E1,2.5E1,3.07E2,2.2E2,7E0,3.1E1,5.7E1,2.5E1,1.53E2,1.63E2,3.2212E4,1.53E2,1.9E1,1.1E2,1.743E3,1.07E2,7.2E1,4.09E2,2.828E3,4.1E1,1.45E2,5.9E1,1.2E1,2E1,1.1E1,2E0,2.4E1,1.9E1,3.3E1,2.8E1,1.5E1,1.4E1,6E0,1.7E1,3.35E2,2.3E1,1.52E2,3.66E2,4E0,7E0,2.2E1,3E0,2.17E2,9E1,2.12E2,8E0,5E0,2E0,3E0,2.8E1,4.2E1,1.5E1,1.3E1,1.2E1,1.33E2,2E1,8.1E1,8.2E1],"tree_param":{"num_deleted":"0","num_feature":"4","num_nodes":"105","size_leaf_vector":"1"}},{"base_weights":[9.75179E1,-1.938452E3,2.0703408E4,-2.3693772E3,5.9631787E3,1.3369145E4,3.442983E4,-2.305076E3,-1.2915464E4,9.35072E3,-1.2451635E4,1.9771842E4,-1.1432517E4,4.104218E4,-7.8972544E3,-2.6757817E3,6.929832E1,-4.072785E4,3.6169727E3,-2.7499956E3,1.6276672E4,1.7325117E4,-3.0972746E4,1.5103315E4,4.446716E4,-2.1133871E4,9.62958E4,4.665701E4,9.292495E2,1.2233465E5,-3.4438297E4,-2.601015E3,-5.3442715E3,1.6826667E3,-2.7016506E3,5.9395913E3,-5.6922477E4,1.2048471E4,-2.813032E4,2.804949E4,-2.0306594E4,1.0221764E4,5.0467453E4,-6.3447215E4,3.645192E4,-1.2943098E5,-1.8626219E4,1.0037925E4,1.0932074E5,-4.0419316E4,7.193254E4,-2.9554795E4,4.8779043E4,-2.2783793E4,1.4172955E5,-2.160572E4,5.055357E4,-1.031827E5,3.1953684E4,2.1760076E4,1.9204845E5,-1.09899766E5,3.8393773E4,-8.103919E2,2.2110587E2,-6.880887E1,-1.927557E3,8.185526E2,-2.8915825E3,-1.2916831E3,7.645256E3,-8.596435E3,1.0281981E4,-1.2290599E4,-2.6254064E4,-3.1229382E3,1.1995323E4,-2.1572611E4,-3.8766553E3,-7.714186E3,1.2002231E4,-8.597876E3,8.731379E3,5.2956904E3,-2.6781033E4,-5.0536072E2,2.7478596E4,-6.666628E3,-3.3208547E4,4.008573E4,-5.396393E2,-2.7198264E4,-4.4316793E4,3.7013298E3,-1.3441296E4,6.235224E3,-7.5952085E3,-5.4657295E3,7.119482E4,4.8735166E3,-1.5085439E5,6.871221E4,1.4495984E4,-6.028915E3,-3.623515E4,2.096967E3,1.0204145E5,2.4525332E4,6.1276516E4,1.856662E4,-3.0362271E4,3.048131E4,1.2490591E4,-6.209015E4,-1.928658E4,1.13625734E5,3.1838442E3,-9.858375E2,2.368067E4,6.87019E4,2.58374E4,-2.0412188E4,-7.407655E4,8.907695E4,-2.2067114E3],"categories":[],"categories_nodes":[],"categories_segments":[],"categories_sizes":[],"default_left":[0,0,0,0,0,0,0,0,0,0,0,0,0,0,0,0,0,0,0,0,0,0,0,0,0,0,0,0,0,0,0,0,0,0,0,0,0,0,0,0,0,0,0,0,0,0,0,0,0,0,0,0,0,0,0,0,0,0,0,0,0,0,0,0,0,0,0,0,0,0,0,0,0,0,0,0,0,0,0,0,0,0,0,0,0,0,0,0,0,0,0,0,0,0,0,0,0,0,0,0,0,0,0,0,0,0,0,0,0,0,0,0,0,0,0,0,0,0,0,0,0,0,0,0,0],"id":12,"left_children":[1,3,5,7,9,11,13,15,17,19,21,23,25,27,29,31,33,35,37,39,41,43,45,47,49,51,53,55,57,59,61,63,65,67,69,71,73,75,77,79,81,83,85,87,89,91,93,95,97,99,101,103,105,-1,107,109,111,113,115,117,119,121,123,-1,-1,-1,-1,-1,-1,-1,-1,-1,-1,-1,-1,-1,-1,-1,-1,-1,-1,-1,-1,-1,-1,-1,-1,-1,-1,-1,-1,-1,-1,-1,-1,-1,-1,-1,-1,-1,-1,-1,-1,-1,-1,-1,-1,-1,-1,-1,-1,-1,-1,-1,-1,-1,-1,-1,-1,-1,-1,-1,-1,-1,-1],"loss_changes":[1.6782009E12,1.2397359E11,3.616612E11,2.338123E10,1.1757971E11,3.7276503E11,3.507357E11,3.0204068E10,9.6246874E10,1.3338486E11,1.6212568E11,2.1434565E11,5.057784E11,2.438778E11,5.9181636E11,5.90789E9,2.07256E10,5.928752E10,3.567232E10,3.1419548E11,2.0899044E11,1.7688837E11,2.1761591E11,7.481821E11,6.930136E11,2.6224964E11,3.2378742E11,2.5378265E11,4.3611898E11,1.9915266E11,7.8465355E11,9.66828E9,4.465799E9,3.471827E10,7.723619E10,2.1565995E10,2.472126E10,6.629246E10,1.7712835E10,1.3668077E11,1.5354467E11,6.380943E11,3.2617903E11,4.039176E10,3.4217807E11,7.907574E8,1.3186646E11,5.670069E11,1.310284E12,1.9210043E12,8.199125E11,3.3927388E11,5.8205366E11,0E0,1.0330774E11,3.518719E11,4.050704E11,1.1182909E11,7.656831E11,1.8875767E10,4.682711E10,3.8469298E11,8.655978E11,0E0,0E0,0E0,0E0,0E0,0E0,0E0,0E0,0E0,0E0,0E0,0E0,0E0,0E0,0E0,0E0,0E0,0E0,0E0,0E0,0E0,0E0,0E0,0E0,0E0,0E0,0E0,0E0,0E0,0E0,0E0,0E0,0E0,0E0,0E0,0E0,0E0,0E0,0E0,0E0,0E0,0E0,0E0,0E0,0E0,0E0,0E0,0E0,0E0,0E0,0E0,0E0,0E0,0E0,0E0,0E0,0E0,0E0,0E0,0E0,0E0,0E0],"parents":[2147483647,0,0,1,1,2,2,3,3,4,4,5,5,6,6,7,7,8,8,9,9,10,10,11,11,12,12,13,13,14,14,15,15,16,16,17,17,18,18,19,19,20,20,21,21,22,22,23,23,24,24,25,25,26,26,27,27,28,28,29,29,30,30,31,31,32,32,33,33,34,34,35,35,36,36,37,37,38,38,39,39,40,40,41,41,42,42,43,43,44,44,45,45,46,46,47,47,48,48,49,49,50,50,51,51,52,52,54,54,55,55,56,56,57,57,58,58,59,59,60,60,61,61,62,62],"right_children":[2,4,6,8,10,12,14,16,18,20,22,24,26,28,30,32,34,36,38,40,42,44,46,48,50,52,54,56,58,60,62,64,66,68,70,72,74,76,78,80,82,84,86,88,90,92,94,96,98,100,102,104,106,-1,108,110,112,114,116,118,120,122,124,-1,-1,-1,-1,-1,-1,-1,-1,-1,-1,-1,-1,-1,-1,-1,-1,-1,-1,-1,-1,-1,-1,-1,-1,-1,-1,-1,-1,-1,-1,-1,-1,-1,-1,-1,-1,-1,-1,-1,-1,-1,-1,-1,-1,-1,-1,-1,-1,-1,-1,-1,-1,-1,-1,-1,-1,-1,-1,-1,-1,-1,-1],"split_conditions":[3.2210035E6,1.7462535E6,6.671301E6,5.0931047E5,8.279753E5,1.6013189E6,3.8960853E-1,3.115041E5,5.65451E5,3.3927166E-1,5.6614925E5,2.1788082E6,3.8925678E-1,3.1610462E6,9.282311E5,5.751571E4,3.6138982E-1,2.7110438E5,1.6726849E6,6.924679E5,7.078394E5,4.1566822E5,6.2456025E5,6.0166275E6,3.286197E-1,2.6483892E6,9.4828544E5,7.779527E5,3.2088462E-1,5.9271606E5,2.1457045E6,5.999417E4,3.193322E-1,3.8446328E5,3.8446328E5,3.5045433E-1,1.6726849E6,1.4854175E6,6.2046494E5,3.098705E-1,1.3174159E6,6.7873994E5,2.451673E6,2.1860088E6,9.282311E5,3.105124E-1,3.406428E-1,4.8111995E6,1.1147665E6,6.3656185E6,3.377904E-1,3.7068784E-1,3.7013325E-1,-2.2783793E4,1.6630175E6,1.7442202E6,1.1147665E6,1.6630175E6,3.2988083E-1,2.6483892E6,7.0830795E6,1.855249E6,2.3699852E6,-8.103919E2,2.2110587E2,-6.880887E1,-1.927557E3,8.185526E2,-2.8915825E3,-1.2916831E3,7.645256E3,-8.596435E3,1.0281981E4,-1.2290599E4,-2.6254064E4,-3.1229382E3,1.1995323E4,-2.1572611E4,-3.8766553E3,-7.714186E3,1.2002231E4,-8.597876E3,8.731379E3,5.2956904E3,-2.6781033E4,-5.0536072E2,2.7478596E4,-6.666628E3,-3.3208547E4,4.008573E4,-5.396393E2,-2.7198264E4,-4.4316793E4,3.7013298E3,-1.3441296E4,6.235224E3,-7.5952085E3,-5.4657295E3,7.119482E4,4.8735166E3,-1.5085439E5,6.871221E4,1.4495984E4,-6.028915E3,-3.623515E4,2.096967E3,1.0204145E5,2.4525332E4,6.1276516E4,1.856662E4,-3.0362271E4,3.048131E4,1.2490591E4,-6.209015E4,-1.928658E4,1.13625734E5,3.1838442E3,-9.858375E2,2.368067E4,6.87019E4,2.58374E4,-2.0412188E4,-7.407655E4,8.907695E4,-2.2067114E3],"split_indices":[0,0,0,3,3,3,1,0,3,1,2,2,1,3,3,3,1,2,0,2,3,2,2,0,1,2,2,3,1,3,3,2,1,3,3,1,0,0,3,1,2,3,0,0,3,1,1,0,3,0,1,1,1,0,2,2,3,2,1,2,0,3,3,0,0,0,0,0,0,0,0,0,0,0,0,0,0,0,0,0,0,0,0,0,0,0,0,0,0,0,0,0,0,0,0,0,0,0,0,0,0,0,0,0,0,0,0,0,0,0,0,0,0,0,0,0,0,0,0,0,0,0,0,0,0],"split_type":[0,0,0,0,0,0,0,0,0,0,0,0,0,0,0,0,0,0,0,0,0,0,0,0,0,0,0,0,0,0,0,0,0,0,0,0,0,0,0,0,0,0,0,0,0,0,0,0,0,0,0,0,0,0,0,0,0,0,0,0,0,0,0,0,0,0,0,0,0,0,0,0,0,0,0,0,0,0,0,0,0,0,0,0,0,0,0,0,0,0,0,0,0,0,0,0,0,0,0,0,0,0,0,0,0,0,0,0,0,0,0,0,0,0,0,0,0,0,0,0,0,0,0,0,0],"sum_hessian":[4E4,3.6404E4,3.596E3,3.4522E4,1.882E3,2.345E3,1.251E3,3.4314E4,2.08E2,1.59E3,2.92E2,1.864E3,4.81E2,1.082E3,1.69E2,2.968E4,4.634E3,7.7E1,1.31E2,5.79E2,1.011E3,1.12E2,1.8E2,1.569E3,2.95E2,4.42E2,3.9E1,9.49E2,1.33E2,2.8E1,1.41E2,2.8873E4,8.07E2,2.929E3,1.705E3,2E1,5.7E1,1.04E2,2.7E1,2.1E2,3.69E2,8.6E2,1.51E2,2.1E1,9.1E1,1.9E1,1.61E2,1.49E3,7.9E1,7.2E1,2.23E2,3.95E2,4.7E1,8E0,3.1E1,5.1E1,8.98E2,3E1,1.03E2,1.2E1,1.6E1,6.9E1,7.2E1,2.8031E4,8.42E2,1.41E2,6.66E2,2.682E3,2.47E2,1.614E3,9.1E1,9E0,1.1E1,3.9E1,1.8E1,5.8E1,4.6E1,6E0,2.1E1,3.8E1,1.72E2,3.16E2,5.3E1,8.01E2,5.9E1,6.7E1,8.4E1,1.2E1,9E0,2.5E1,6.6E1,8E0,1.1E1,7.4E1,8.7E1,1.143E3,3.47E2,4E1,3.9E1,6.5E1,7E0,2.8E1,1.95E2,3.59E2,3.6E1,4.2E1,5E0,1.7E1,1.4E1,2.5E1,2.6E1,1.32E2,7.66E2,7E0,2.3E1,5E0,9.8E1,9E0,3E0,1.1E1,5E0,5.4E1,1.5E1,1E1,6.2E1],"tree_param":{"num_deleted":"0","num_feature":"4","num_nodes":"125","size_leaf_vector":"1"}},{"base_weights":[7.2745415E1,-1.4449631E3,1.4090171E4,-1.4201423E3,-3.3968203E4,9.135281E3,2.6762396E4,-1.7498785E3,3.6992688E3,2.7904777E4,2.7071838E3,-1.3479428E4,3.3193227E4,-1.6572418E3,-2.115475E4,1.1613153E4,-1.2173638E3,1.0786348E4,4.8173934E4,2.6273686E4,-4.8530283E3,-9.7303E4,7.856667E4,4.1184254E4,-1.4761981E4,-1.7657184E3,2.2978863E4,1.07525205E4,-4.343509E4,4.184453E3,6.1190305E4,-1.3281201E4,5.404601E3,2.1204785E3,8.655969E4,2.2184633E4,1.0806651E5,1.9956617E4,9.313511E4,-5.4776977E4,2.2209263E3,2.780425E4,-1.5141689E5,1.3918945E5,-6.829474E4,1.2411585E5,3.661316E4,-9.573341E4,9.057606E3,-5.0740524E2,-1.8341953E4,2.2200463E4,4.603483E3,2.528684E4,-3.0788098E3,-6.719691E3,-3.14201E4,1.0904334E4,-1.0769989E3,1.5307021E3,3.25908E4,-4.6705107E3,3.2290635E4,4.7183423E3,-3.068897E3,4.14216E3,-6.2339233E3,5.5102652E4,4.248803E3,-1.0513386E4,9.087267E3,4.2220707E4,1.4855968E4,-1.527792E2,1.7660566E4,3.5028245E3,-2.9809707E4,4.5369528E2,9.886993E4,4.691894E4,-9.267759E3,-5.40861E4,2.2928734E4,8.570085E4,-9.130733E3,-3.7711164E4,1.6260681E2,7.4949297E3,8.509354E4,1.8689242E4,4.862165E3,-8.46623E4,-8.875932E3,1.2352977E4,-1.5585852E4],"categories":[],"categories_nodes":[],"categories_segments":[],"categories_sizes":[],"default_left":[0,0,0,0,0,0,0,0,0,0,0,0,0,0,0,0,0,0,0,0,0,0,0,0,0,0,0,0,0,0,0,0,0,0,0,0,0,0,0,0,0,0,0,0,0,0,0,0,0,0,0,0,0,0,0,0,0,0,0,0,0,0,0,0,0,0,0,0,0,0,0,0,0,0,0,0,0,0,0,0,0,0,0,0,0,0,0,0,0,0,0,0,0,0,0],"id":13,"left_children":[1,3,5,7,-1,9,11,13,15,17,19,21,23,25,27,29,31,33,35,37,39,41,43,45,47,49,51,53,55,57,59,61,63,65,67,69,71,73,-1,75,77,79,81,83,85,87,89,91,93,-1,-1,-1,-1,-1,-1,-1,-1,-1,-1,-1,-1,-1,-1,-1,-1,-1,-1,-1,-1,-1,-1,-1,-1,-1,-1,-1,-1,-1,-1,-1,-1,-1,-1,-1,-1,-1,-1,-1,-1,-1,-1,-1,-1,-1,-1],"loss_changes":[8.510163E11,9.998256E10,2.4513675E11,6.0923306E10,0E0,3.3907763E11,2.8459703E11,6.0910903E10,8.499285E10,2.4826223E11,3.7338897E11,1.1804209E12,3.6350912E11,9.021937E10,1.1492273E11,3.0800586E11,1.0775852E11,2.5590678E11,5.0815625E11,9.0754266E11,5.6058616E11,5.4581336E11,6.594356E11,3.0327518E11,2.6317115E11,1.4824446E11,5.6510915E10,1.044065E11,1.2015508E11,1.824185E11,2.8950915E11,1.3386976E11,1.407365E11,9.422451E10,2.7863443E11,1.0776196E11,1.8238512E11,3.974172E11,0E0,5.8488226E11,3.2215774E11,1.935302E11,3.821437E11,1.3007234E12,8.700905E10,6.5712593E11,4.0308107E11,3.7402634E11,2.0985612E11,0E0,0E0,0E0,0E0,0E0,0E0,0E0,0E0,0E0,0E0,0E0,0E0,0E0,0E0,0E0,0E0,0E0,0E0,0E0,0E0,0E0,0E0,0E0,0E0,0E0,0E0,0E0,0E0,0E0,0E0,0E0,0E0,0E0,0E0,0E0,0E0,0E0,0E0,0E0,0E0,0E0,0E0,0E0,0E0,0E0,0E0],"parents":[2147483647,0,0,1,1,2,2,3,3,5,5,6,6,7,7,8,8,9,9,10,10,11,11,12,12,13,13,14,14,15,15,16,16,17,17,18,18,19,19,20,20,21,21,22,22,23,23,24,24,25,25,26,26,27,27,28,28,29,29,30,30,31,31,32,32,33,33,34,34,35,35,36,36,37,37,39,39,40,40,41,41,42,42,43,43,44,44,45,45,46,46,47,47,48,48],"right_children":[2,4,6,8,-1,10,12,14,16,18,20,22,24,26,28,30,32,34,36,38,40,42,44,46,48,50,52,54,56,58,60,62,64,66,68,70,72,74,-1,76,78,80,82,84,86,88,90,92,94,-1,-1,-1,-1,-1,-1,-1,-1,-1,-1,-1,-1,-1,-1,-1,-1,-1,-1,-1,-1,-1,-1,-1,-1,-1,-1,-1,-1,-1,-1,-1,-1,-1,-1,-1,-1,-1,-1,-1,-1,-1,-1,-1,-1,-1,-1],"split_conditions":[2.957043E6,1.1901341E6,7.0830795E6,4.1566822E5,-3.3968203E4,7.438076E5,3.105124E-1,2.1860088E6,5.6614925E5,3.584648E-1,3.2088462E-1,8.672401E6,3.8960853E-1,1.8466218E6,4.0290478E5,3.8925678E-1,3.3045748E-1,7.078394E5,6.2046494E5,2.8815802E6,3.3045748E-1,1.1901341E6,3.1610462E6,3.1964192E-1,7.4471015E6,1.7462535E6,3.2E-1,3.3083582E-1,2.451673E6,3.1881455E-1,1.3259879E6,1.0656891E6,3.7918964E-1,6.2046494E5,3.2088462E-1,5.9947225E5,3.7164375E-1,3.193322E-1,9.313511E4,1.1901341E6,3.429434E6,1.6630175E6,2.6871712E6,3.429434E6,3.429434E6,1.7221376E6,1.855249E6,2.6483892E6,2.6871712E6,-5.0740524E2,-1.8341953E4,2.2200463E4,4.603483E3,2.528684E4,-3.0788098E3,-6.719691E3,-3.14201E4,1.0904334E4,-1.0769989E3,1.5307021E3,3.25908E4,-4.6705107E3,3.2290635E4,4.7183423E3,-3.068897E3,4.14216E3,-6.2339233E3,5.5102652E4,4.248803E3,-1.0513386E4,9.087267E3,4.2220707E4,1.4855968E4,-1.527792E2,1.7660566E4,3.5028245E3,-2.9809707E4,4.5369528E2,9.886993E4,4.691894E4,-9.267759E3,-5.40861E4,2.2928734E4,8.570085E4,-9.130733E3,-3.7711164E4,1.6260681E2,7.4949297E3,8.509354E4,1.8689242E4,4.862165E3,-8.46623E4,-8.875932E3,1.2352977E4,-1.5585852E4],"split_indices":[0,3,0,2,0,3,1,0,2,1,1,0,1,0,3,1,1,3,3,2,1,3,3,1,0,0,1,1,0,1,0,3,1,3,1,2,1,1,0,3,2,2,3,2,2,3,3,2,3,0,0,0,0,0,0,0,0,0,0,0,0,0,0,0,0,0,0,0,0,0,0,0,0,0,0,0,0,0,0,0,0,0,0,0,0,0,0,0,0,0,0,0,0,0,0],"split_type":[0,0,0,0,0,0,0,0,0,0,0,0,0,0,0,0,0,0,0,0,0,0,0,0,0,0,0,0,0,0,0,0,0,0,0,0,0,0,0,0,0,0,0,0,0,0,0,0,0,0,0,0,0,0,0,0,0,0,0,0,0,0,0,0,0,0,0,0,0,0,0,0,0,0,0,0,0,0,0,0,0,0,0,0,0,0,0,0,0,0,0,0,0,0,0],"sum_hessian":[4E4,3.6093E4,3.907E3,3.6086E4,7E0,2.81E3,1.097E3,3.3903E4,2.183E3,7.16E2,2.094E3,1.51E2,9.46E2,3.3743E4,1.6E2,8.36E2,1.347E3,3.89E2,3.27E2,5.08E2,1.586E3,7.9E1,7.2E1,8.11E2,1.35E2,3.3596E4,1.47E2,6.6E1,9.4E1,7.28E2,1.08E2,4.77E2,8.7E2,3.5E2,3.9E1,2.29E2,9.8E1,4.98E2,1E1,1.96E2,1.39E3,2.4E1,5.5E1,5.1E1,2.1E1,4.1E1,7.7E2,3E1,1.05E2,3.3555E4,4.1E1,1.8E1,1.29E2,1.4E1,5.2E1,7.1E1,2.3E1,1.41E2,5.87E2,5E1,5.8E1,4.69E2,8E0,5.24E2,3.46E2,2.32E2,1.18E2,1.6E1,2.3E1,2.8E1,2.01E2,6.2E1,3.6E1,3.27E2,1.71E2,7.9E1,1.17E2,1.388E3,2E0,7E0,1.7E1,4.9E1,6E0,2.7E1,2.4E1,1.1E1,1E1,2.6E1,1.5E1,3.4E2,4.3E2,7E0,2.3E1,6.9E1,3.6E1],"tree_param":{"num_deleted":"0","num_feature":"4","num_nodes":"95","size_leaf_vector":"1"}},{"base_weights":[6.0738354E1,-8.501617E2,1.2863712E4,-7.866365E2,-3.9037633E4,1.4541353E4,-2.272559E4,-1.228635E3,4.143171E3,-1.4707542E5,1.5910733E4,4.577856E3,2.0194148E4,7.678923E4,-5.384737E4,-1.1635533E3,-1.0675242E4,1.4749799E2,9.221204E3,-6.938229E4,-1.0630864E5,8.2217875E4,-1.3352719E4,1.1664542E4,-1.3677672E5,1.3452233E4,6.768959E4,-3.485111E4,2.3785062E5,-1.24172336E5,5.404574E4,-1.2172952E3,7.875132E3,-1.4216933E4,2.0906922E4,9.868917E3,-8.0232314E3,2.412551E4,3.945487E3,4.677535E4,-1.5490655E5,-3.1033998E4,1.482619E5,-8.734666E4,4.0829164E4,-1.2813809E2,1.4553817E5,1.0339276E5,-1.935347E5,1.722858E4,-9.248297E4,1.2179422E5,-4.7387707E4,4.772783E4,-5.561797E4,1.0995311E5,9.359221E4,-1.4615455E5,1.2927723E5,1.2082908E5,-1.6715011E5,-3.567602E2,-1.5324536E4,-1.8997212E3,2.0116027E4,-3.7845725E3,-2.0051656E4,-8.0447563E3,1.2640464E4,1.706423E3,2.5108365E4,2.3534126E3,-7.944157E3,9.981056E3,-6.325647E3,3.197516E3,-7.031183E3,5.168269E3,-5.0841855E4,1.2028876E3,4.915333E4,-1.0904047E4,-3.776052E4,1.8987574E4,-1.6084027E4,2.5128809E3,-5.99547E4,-4.4967414E4,6.065954E4,-1.6489147E5,-2.619979E4,3.7138352E3,3.3426277E4,3.5979125E4,-4.938455E4,2.4188566E4,6.3896195E4,-1.566812E5,-2.305808E3,-3.0096014E4,6.772072E3,3.9569543E4,9.566372E3,2.2067824E4,-5.2923605E4,1.1113501E3,6.3527266E4,8.793964E3,6.936274E4,-3.0811832E4,-6.660858E4],"categories":[],"categories_nodes":[],"categories_segments":[],"categories_sizes":[],"default_left":[0,0,0,0,0,0,0,0,0,0,0,0,0,0,0,0,0,0,0,0,0,0,0,0,0,0,0,0,0,0,0,0,0,0,0,0,0,0,0,0,0,0,0,0,0,0,0,0,0,0,0,0,0,0,0,0,0,0,0,0,0,0,0,0,0,0,0,0,0,0,0,0,0,0,0,0,0,0,0,0,0,0,0,0,0,0,0,0,0,0,0,0,0,0,0,0,0,0,0,0,0,0,0,0,0,0,0,0,0,0,0],"id":14,"left_children":[1,3,5,7,9,11,13,15,17,19,21,23,25,27,29,31,33,35,37,-1,39,41,43,45,47,49,51,53,55,57,59,61,63,65,67,69,71,73,75,-1,77,-1,79,81,83,85,87,-1,89,91,93,95,97,-1,99,-1,101,103,105,107,109,-1,-1,-1,-1,-1,-1,-1,-1,-1,-1,-1,-1,-1,-1,-1,-1,-1,-1,-1,-1,-1,-1,-1,-1,-1,-1,-1,-1,-1,-1,-1,-1,-1,-1,-1,-1,-1,-1,-1,-1,-1,-1,-1,-1,-1,-1,-1,-1,-1,-1],"loss_changes":[4.665118E11,9.056327E10,1.589695E11,8.124572E10,3.704031E11,1.4285183E11,3.757843E11,2.102421E10,6.2248866E10,4.7496364E10,8.259361E10,9.23192E11,5.175098E11,5.2973686E11,7.0476825E11,1.651748E10,2.647113E10,1.3654177E11,1.0613515E11,0E0,2.2805126E11,1.7474362E11,1.2384022E11,1.3845639E12,1.268973E12,5.692617E11,1.2572407E12,8.13453E10,1.8842046E11,3.30892E11,5.667679E11,4.726805E10,1.6942093E11,1.6940753E10,2.5443254E10,2.4181667E11,2.7375691E11,1.4664581E11,1.8388373E11,0E0,3.802258E10,0E0,2.1821194E10,2.09649E10,4.157921E10,1.3723696E12,1.218785E12,0E0,1.4647558E12,6.2482625E11,7.705127E11,4.9712844E11,1.2214732E12,0E0,6.1685084E10,0E0,1.2339663E10,3.5867197E11,5.100194E10,2.8616684E11,9.025618E9,0E0,0E0,0E0,0E0,0E0,0E0,0E0,0E0,0E0,0E0,0E0,0E0,0E0,0E0,0E0,0E0,0E0,0E0,0E0,0E0,0E0,0E0,0E0,0E0,0E0,0E0,0E0,0E0,0E0,0E0,0E0,0E0,0E0,0E0,0E0,0E0,0E0,0E0,0E0,0E0,0E0,0E0,0E0,0E0,0E0,0E0,0E0,0E0,0E0,0E0],"parents":[2147483647,0,0,1,1,2,2,3,3,4,4,5,5,6,6,7,7,8,8,9,9,10,10,11,11,12,12,13,13,14,14,15,15,16,16,17,17,18,18,20,20,21,21,22,22,23,23,24,24,25,25,26,26,27,27,28,28,29,29,30,30,31,31,32,32,33,33,34,34,35,35,36,36,37,37,38,38,40,40,42,42,43,43,44,44,45,45,46,46,48,48,49,49,50,50,51,51,52,52,54,54,56,56,57,57,58,58,59,59,60,60],"right_children":[2,4,6,8,10,12,14,16,18,20,22,24,26,28,30,32,34,36,38,-1,40,42,44,46,48,50,52,54,56,58,60,62,64,66,68,70,72,74,76,-1,78,-1,80,82,84,86,88,-1,90,92,94,96,98,-1,100,-1,102,104,106,108,110,-1,-1,-1,-1,-1,-1,-1,-1,-1,-1,-1,-1,-1,-1,-1,-1,-1,-1,-1,-1,-1,-1,-1,-1,-1,-1,-1,-1,-1,-1,-1,-1,-1,-1,-1,-1,-1,-1,-1,-1,-1,-1,-1,-1,-1,-1,-1,-1,-1,-1],"split_conditions":[4.319486E6,1.8461835E6,3.9932248E-1,1.584775E6,3.5084015E-1,3.377904E-1,1.5475089E6,4.586165E5,3.584648E-1,3.1881455E-1,7.438076E5,9.494634E6,9.069028E6,6.3656185E6,2.6483892E6,1.4084406E6,3.8925678E-1,3.286197E-1,3.6982176E-1,-6.938229E4,3.2049054E-1,2.0294946E6,1.0656891E6,2.6871712E6,1.520631E6,3.8055092E6,2.6871712E6,7.3918894E5,1.3903712E6,9.494634E6,3.1610462E6,6.588871E5,4.0290478E5,6.924679E5,1.1922735E6,4.1374498E6,6.2046494E5,1.3903712E6,9.282311E5,4.677535E4,6.7873994E5,-3.1033998E4,3.584648E-1,3.7918964E-1,1.2526769E6,9.069028E6,3.0164194E-1,1.0339276E5,2.3699852E6,8.672401E6,8.24682E6,3.8055092E6,1.6630175E6,4.772783E4,9.4828544E5,1.0995311E5,7.8111005E6,